500 64
60 -0.022352 -0.035814 -0.100635 0.186577 0.121050 -0.101981 0.159982 0.019800 -0.152333 0.085652 -0.295960 -0.102948 -0.011630 -0.337845 0.050937 -0.099706 0.146816 0.366083 0.123209 0.167772 -0.198920 0.063757 -0.250577 0.097402 0.205514 -0.033014 -0.084932 0.275721 -0.315192 -0.179415 0.088644 0.102838 0.009660 0.471114 0.016211 0.100137 -0.093908 0.133187 0.205305 -0.056857 -0.031214 0.165115 0.038875 -0.192451 -0.377423 0.059400 -0.048623 0.142429 0.302823 -0.241404 -0.107911 0.210407 0.089599 -0.066449 0.035802 0.148793 0.151894 0.131528 -0.138213 -0.217165 -0.198299 -0.327873 0.152531 -0.156588
150 -0.027739 0.120274 -0.111333 0.258586 0.014993 -0.186649 0.208597 -0.022463 -0.147465 0.189792 -0.247274 -0.019491 -0.051456 -0.288420 -0.050494 -0.136395 0.138722 0.245220 -0.008857 0.210426 -0.354877 0.159162 -0.273756 0.091839 0.379433 -0.002207 -0.097058 0.218385 -0.336745 -0.223366 0.130768 0.141064 -0.041215 0.432185 0.033675 0.110726 -0.012427 0.076918 0.189373 -0.009587 -0.053759 0.303354 0.042120 -0.229867 -0.365866 0.087301 -0.023532 0.058135 0.324870 -0.118329 -0.069522 0.118941 0.171419 -0.108681 0.072875 0.094601 0.086949 0.073555 -0.204752 -0.132514 -0.101575 -0.233503 0.148734 -0.128545
152 -0.057768 0.023682 -0.006049 0.248187 0.045090 -0.118130 0.231152 0.070319 -0.098986 0.085313 -0.289248 0.088998 -0.043175 -0.313630 0.087186 -0.122629 0.071410 0.262952 -0.111412 0.281895 -0.219159 0.126297 -0.268167 0.136808 0.233417 -0.017937 0.023127 0.224284 -0.370401 -0.256806 0.068049 0.150561 0.004496 0.542374 0.205781 0.148127 -0.010736 0.122232 0.165318 -0.135666 -0.002632 0.260141 0.074490 -0.302696 -0.250885 0.001158 -0.010583 0.059441 0.302721 -0.155432 0.031881 0.149424 0.038081 -0.001626 0.021480 0.154135 0.096254 0.139982 -0.181192 -0.161756 -0.233562 -0.372945 0.053815 -0.082644
30 -0.123732 -0.036258 -0.188642 0.194049 -0.020575 -0.202414 0.116202 0.156935 -0.162976 0.255331 -0.319764 0.046958 -0.030992 -0.470235 -0.072347 -0.181772 0.053879 0.273523 -0.076301 0.256776 -0.195386 0.095378 -0.177607 0.016739 0.144990 0.003104 0.067361 0.262737 -0.380067 -0.116906 0.142078 0.186056 -0.148245 0.436160 0.010647 0.149721 0.062617 0.010499 0.456480 -0.185454 -0.020712 0.412237 -0.054926 -0.186010 -0.382699 0.288413 0.017168 0.075369 0.445073 -0.233419 0.025536 0.044874 0.169699 -0.055326 0.058955 0.111349 0.231252 0.154176 -0.091466 -0.081379 -0.330873 -0.428487 0.198344 -0.169982
171 -0.051669 -0.062473 -0.197863 0.172358 0.011499 -0.268312 0.315029 0.168973 -0.238007 0.202025 -0.317776 0.023813 0.011575 -0.460277 0.014925 -0.211907 0.048900 0.294955 -0.110173 0.173712 -0.224201 0.199675 -0.227892 0.189203 0.195587 0.023173 0.041418 0.286396 -0.333123 -0.199200 0.029500 0.149251 -0.025940 0.416641 0.054647 0.103368 -0.179008 0.019004 0.384643 -0.062151 -0.027653 0.429478 0.008578 -0.235674 -0.442296 0.148610 -0.061129 0.134375 0.427478 -0.257302 0.001097 0.095139 0.091092 -0.150857 0.021589 0.040504 0.118458 0.238749 -0.019216 -0.121833 -0.309693 -0.211050 0.129377 -0.246860
139 -0.068318 -0.016131 -0.123587 0.243590 0.153435 -0.170943 0.112452 -0.034097 -0.223373 0.217322 -0.354486 -0.124194 -0.132302 -0.410241 0.030989 -0.116658 0.021495 0.306280 -0.029036 0.222148 -0.251613 0.139672 -0.260608 0.036260 0.226411 -0.065410 -0.020078 0.317033 -0.244415 -0.252399 0.118015 0.188976 -0.114956 0.478686 -0.019351 0.109066 -0.216772 0.046456 0.237858 -0.044207 0.033809 0.236598 -0.000918 -0.299137 -0.310467 0.270466 -0.103597 0.120669 0.398464 -0.066613 -0.004184 0.173015 0.073122 -0.056631 -0.031697 0.145649 0.186183 -0.006756 -0.108621 -0.103816 -0.192213 -0.272828 0.290263 -0.042394
227 -0.193127 -0.042080 -0.163938 0.298550 0.096673 -0.173601 0.180184 0.044115 -0.122602 0.179744 -0.269959 -0.008963 -0.022187 -0.335530 -0.006913 -0.135401 0.071428 0.367179 0.048708 0.167669 -0.301885 0.122978 -0.351068 -0.021731 0.280185 -0.124480 0.027444 0.221563 -0.177220 -0.185350 0.065741 0.111548 -0.054106 0.407877 -0.043804 0.211857 -0.087545 0.147206 0.224767 -0.155960 -0.071404 0.236126 -0.001389 -0.220911 -0.282861 0.091812 -0.051297 0.109190 0.380397 -0.111449 -0.047726 0.022843 0.182299 -0.122737 -0.002612 0.272654 0.222816 0.164784 -0.253771 -0.124866 -0.209366 -0.236390 0.100843 -0.159761
437 -0.098993 0.020033 -0.150507 0.148958 -0.040882 -0.254721 0.246635 0.123509 -0.166295 0.208846 -0.257344 -0.106384 0.005322 -0.446411 0.090194 -0.043729 0.109171 0.283130 -0.025166 0.183111 -0.258745 0.186021 -0.418767 0.135054 0.091694 0.001281 0.081169 0.237390 -0.435084 -0.185061 0.041581 0.142851 0.022281 0.428757 0.039143 0.188868 -0.063166 0.118921 0.332964 -0.178526 -0.142158 0.413715 -0.031537 -0.216982 -0.536145 0.132775 0.056737 0.203716 0.351973 -0.245063 -0.012679 0.036807 0.059976 -0.077991 0.103992 0.087549 0.134266 0.045748 -0.121241 -0.166679 -0.285665 -0.267638 0.120435 -0.201779
318 -0.100495 0.009787 -0.035816 0.241306 0.035231 -0.204085 0.060319 0.088742 -0.172477 0.185572 -0.143900 0.026751 0.013185 -0.211122 0.068666 -0.056240 0.079960 0.463380 -0.037020 0.127513 -0.233968 0.222798 -0.340820 0.030260 0.172244 -0.009353 -0.015016 0.113428 -0.234284 -0.228052 0.152778 0.104999 0.065478 0.516398 0.133462 0.248000 0.026467 0.186922 0.259767 -0.056027 -0.034129 0.163566 -0.155931 -0.212902 -0.205670 0.133709 0.001761 0.136742 0.349860 -0.276993 -0.031814 0.175834 0.082050 -0.102853 0.006173 0.176277 0.131903 0.075502 -0.108233 -0.149453 -0.246041 -0.332054 0.119398 -0.174350
319 -0.062678 -0.042577 -0.073528 0.210537 -0.020131 -0.190588 0.207709 0.140013 -0.210495 0.267997 -0.403843 -0.120505 -0.073914 -0.457937 -0.095243 -0.276114 -0.031413 0.225819 -0.156590 0.229092 -0.144007 0.174177 -0.415067 0.048591 0.238305 -0.040150 -0.003166 0.273800 -0.349206 -0.126795 0.148522 0.152458 -0.142684 0.421482 -0.072462 0.140722 -0.060472 0.021965 0.397619 -0.188458 -0.120245 0.259000 -0.053905 -0.154333 -0.441779 0.213717 0.004513 0.141300 0.312959 -0.300080 0.074626 0.073899 -0.013052 -0.079004 0.100066 0.139514 0.204952 0.176062 -0.130436 -0.153217 -0.252978 -0.364215 0.138431 -0.161489
151 -0.070643 0.141036 -0.097259 0.242476 0.145916 -0.134567 0.166051 0.023405 -0.208624 0.152402 -0.277539 0.035475 -0.078923 -0.276643 -0.014595 -0.074117 0.062080 0.281531 -0.245618 0.143192 -0.160525 0.086119 -0.317700 -0.025684 0.266785 -0.031352 -0.039792 0.232871 -0.218519 -0.174442 0.194406 0.142453 -0.033728 0.490175 0.069584 0.143405 0.048479 0.221630 0.278803 -0.127284 -0.010427 0.221280 0.044920 -0.200730 -0.327251 -0.005478 -0.057687 0.168130 0.397876 -0.225386 -0.097715 0.124531 0.078087 -0.137740 0.034236 0.075181 0.112732 0.215436 -0.229899 -0.176060 -0.157221 -0.284932 0.135844 -0.148115
138 -0.121817 0.076623 -0.144622 0.167758 0.019362 -0.221271 0.169432 -0.022165 -0.125926 0.129996 -0.360325 -0.002969 -0.119796 -0.315772 -0.020289 -0.155164 0.032272 0.343638 -0.114310 0.216676 -0.166265 0.258762 -0.374668 0.076540 0.271373 0.021613 0.056884 0.239178 -0.361330 -0.261564 0.173754 0.190175 -0.138668 0.459323 -0.001493 0.116643 -0.113919 0.106004 0.153477 -0.075823 -0.008310 0.180997 0.082360 -0.148244 -0.366297 0.213984 0.018577 0.182611 0.308261 -0.135637 0.000419 0.144687 0.116119 0.022811 0.031396 0.108863 0.147606 0.006792 -0.256243 -0.170885 -0.185527 -0.355873 0.259992 -0.139741
29 -0.183920 0.053060 -0.123644 0.174319 0.060880 -0.271656 0.168348 0.045326 -0.168174 0.144122 -0.273454 0.030591 -0.050432 -0.433875 0.044598 -0.137343 0.046357 0.231312 -0.049856 0.187484 -0.300698 0.221822 -0.341787 0.156208 0.065148 -0.117109 0.070485 0.160090 -0.476622 -0.158074 0.125679 0.231460 -0.055613 0.465868 -0.041648 0.079946 -0.028059 0.009399 0.396415 -0.089631 -0.131229 0.392575 -0.054959 -0.228351 -0.362517 0.324233 -0.018729 0.116083 0.423591 -0.242496 -0.029823 0.081384 0.169029 -0.121373 0.126346 0.126228 0.060832 0.148982 -0.050598 -0.154705 -0.362406 -0.364604 0.191936 -0.192109
137 -0.058563 0.016928 -0.052500 0.246560 -0.002963 -0.144735 0.219913 -0.017366 -0.200214 0.171608 -0.256808 -0.039976 -0.116078 -0.314456 -0.094386 -0.218164 0.006615 0.298309 -0.100783 0.268591 -0.152530 0.176176 -0.305843 0.076497 0.259620 0.027877 0.072309 0.281502 -0.228475 -0.142580 0.120132 0.175649 -0.082561 0.508558 -0.008040 0.120688 0.001436 0.025971 0.255434 -0.040142 -0.144552 0.151417 0.064987 -0.236402 -0.332473 0.246577 -0.025579 0.137136 0.353471 -0.070396 -0.047266 0.106094 0.238877 -0.066452 0.059717 0.231009 0.032863 0.099031 -0.207454 -0.161074 -0.295421 -0.346456 0.238442 -0.152117
224 -0.044873 -0.050231 -0.148047 0.170961 0.115809 -0.183419 0.179687 0.090751 -0.206919 0.204886 -0.233631 -0.045932 -0.001771 -0.299100 -0.024624 -0.123118 0.218802 0.347799 -0.071782 0.147991 -0.149784 0.187537 -0.355092 0.019352 0.269546 -0.022356 -0.070988 0.121726 -0.304967 -0.224572 0.167382 0.051990 -0.028748 0.498340 0.010476 0.235984 -0.017667 0.212562 0.213114 -0.017945 0.003635 0.157018 0.056630 -0.248305 -0.300781 0.161113 -0.035907 0.176619 0.345247 -0.214915 -0.073140 0.300543 0.074091 -0.075814 -0.001895 0.128856 0.024398 0.102079 -0.024003 -0.050381 -0.230418 -0.189180 0.203937 -0.175212
26 -0.076752 -0.074210 -0.232348 0.220002 -0.025056 -0.203301 0.191842 0.169146 -0.028202 0.237210 -0.296994 0.083295 -0.025557 -0.488720 -0.028978 -0.207443 0.085636 0.289463 0.070398 0.324306 -0.225777 0.179184 -0.370011 0.072050 0.236407 -0.011268 -0.024365 0.253871 -0.435021 -0.132572 0.145236 0.172198 0.049055 0.475898 0.051357 0.123851 -0.018240 0.198636 0.426515 -0.167126 -0.029683 0.205551 -0.128687 -0.088650 -0.512649 0.151019 0.001906 0.113078 0.376169 -0.290617 0.028850 0.083452 -0.017171 -0.067796 0.100245 0.155067 0.078706 0.107369 0.031704 -0.154816 -0.177338 -0.383954 0.077510 -0.169064
170 -0.165852 -0.119647 -0.057169 0.211407 0.065277 -0.196793 0.386845 0.081868 -0.239847 0.094729 -0.318526 -0.014763 0.047920 -0.458907 0.096893 -0.080015 0.099674 0.346261 0.053835 0.302799 -0.178079 0.215842 -0.254179 0.082183 0.105759 0.034449 0.032848 0.298300 -0.365960 -0.203042 0.046700 0.100515 -0.034404 0.381777 -0.034413 0.223081 -0.176492 0.136761 0.558519 -0.088313 -0.034126 0.377479 0.000023 -0.128573 -0.454009 0.161939 0.031633 0.105414 0.497876 -0.207868 0.044611 0.049443 0.083795 -0.140581 -0.013215 0.084235 0.104991 -0.036109 -0.031333 -0.197698 -0.261692 -0.280710 0.175881 -0.294326
27 -0.123670 0.006975 -0.170061 0.275731 0.032511 -0.186663 0.211642 0.147298 -0.092969 0.110598 -0.413110 -0.019876 -0.063790 -0.277735 -0.088082 -0.206885 0.023816 0.316675 -0.069479 0.344789 -0.223436 0.178411 -0.313625 0.069749 0.175288 0.050876 0.047990 0.343775 -0.303949 -0.129811 0.194450 0.139309 -0.065545 0.517814 0.013614 0.049596 -0.014249 -0.077141 0.439247 -0.244222 -0.113014 0.364888 -0.097930 -0.144373 -0.505417 0.202794 0.052040 0.098775 0.379809 -0.223650 0.013650 0.088902 0.051096 -0.015082 0.006083 0.169468 0.087838 -0.073169 -0.225017 -0.223629 -0.318180 -0.288076 0.144049 -0.210884
172 -0.129363 -0.034766 -0.073652 0.153922 0.095120 -0.158914 0.265666 0.119186 -0.118453 0.128359 -0.300329 0.137453 0.014218 -0.486777 -0.014696 -0.276464 0.085662 0.206328 0.024118 0.241808 -0.233245 0.216222 -0.373016 0.231314 0.219064 0.059517 0.096222 0.318100 -0.514552 -0.126997 0.050193 0.154576 -0.078717 0.471693 0.113994 0.134474 -0.069649 -0.022009 0.286624 -0.211939 -0.070212 0.274321 -0.140749 -0.206690 -0.556035 0.130537 -0.016907 0.231192 0.375853 -0.235173 0.039146 0.015047 0.044241 -0.135903 0.146786 0.045397 0.193746 0.014186 -0.051641 -0.188035 -0.303859 -0.247231 0.057387 -0.175679
402 -0.115914 -0.063963 -0.050548 0.336879 0.006273 -0.089100 0.203985 0.057983 -0.213182 0.188613 -0.188565 -0.012827 -0.049835 -0.287929 -0.004719 -0.066472 0.094249 0.351921 -0.153332 0.249142 -0.134276 0.214271 -0.294375 0.078673 0.246202 -0.197005 -0.074693 0.181488 -0.320319 -0.257672 0.047165 0.126138 -0.056263 0.476462 -0.002943 0.207208 -0.102389 0.120924 0.232890 -0.030888 -0.010387 0.117060 0.076027 -0.290787 -0.234497 0.059556 0.022122 0.151152 0.259264 -0.176364 -0.030014 0.095876 0.135988 -0.094032 0.004986 0.201256 0.122589 0.078520 -0.234047 -0.119219 -0.159998 -0.201845 0.218657 -0.108257
228 -0.124882 -0.078086 -0.120116 0.166404 0.133841 -0.132657 0.063077 -0.032152 -0.231409 0.157241 -0.221233 -0.035983 -0.030995 -0.338371 0.041083 -0.066452 0.166645 0.288765 -0.048604 0.233401 -0.259697 0.214762 -0.270001 0.005295 0.234286 -0.009413 0.116451 0.300256 -0.367499 -0.217900 0.029362 0.177228 -0.180432 0.478580 -0.020964 0.109241 -0.117125 0.217144 0.197396 -0.042252 0.008592 0.177184 -0.025498 -0.251897 -0.267628 0.077117 0.022555 0.071253 0.440856 -0.172938 0.112326 0.137474 0.133394 -0.167482 0.040442 0.196104 0.164958 0.201993 -0.165178 -0.093954 -0.243766 -0.328061 0.165307 -0.112779
28 -0.244706 -0.128352 -0.231604 0.181574 0.199128 -0.162856 0.252164 0.051284 -0.113265 0.246995 -0.370851 0.053998 -0.079853 -0.450976 -0.032903 -0.131704 0.058442 0.195612 0.039478 0.236199 -0.247757 0.104764 -0.362680 -0.033462 0.321268 -0.062884 0.030895 0.361113 -0.372620 -0.165560 0.152316 0.094323 -0.008629 0.428243 0.029383 0.099653 0.006628 -0.130968 0.353117 -0.131786 -0.105964 0.395140 -0.144455 -0.255259 -0.388330 0.237103 -0.073001 0.149498 0.331114 -0.188493 -0.015914 0.081935 -0.080518 -0.087382 -0.001174 0.251274 0.071673 0.196281 -0.014027 -0.095219 -0.354377 -0.304412 0.135061 -0.227824
399 -0.089067 0.048020 -0.145017 0.085382 0.081664 -0.219481 0.069242 0.017411 -0.263254 0.184513 -0.213170 -0.017204 0.032416 -0.328772 0.114573 -0.193957 -0.043362 0.309382 0.054261 0.148283 -0.249944 0.144538 -0.171116 0.197414 0.282396 -0.039373 -0.085684 0.291373 -0.226423 -0.151180 0.225162 0.087479 0.028443 0.381977 0.064437 0.172571 -0.160910 0.105390 0.277397 -0.077152 -0.115396 0.240243 -0.053111 -0.306220 -0.275591 0.043965 -0.103928 0.189619 0.297102 -0.197633 -0.022888 0.169691 0.309198 -0.078161 -0.022218 0.184794 0.069590 0.076640 -0.237001 -0.119260 -0.146614 -0.281370 0.146978 -0.047958
199 -0.109872 -0.030455 -0.229204 0.219863 0.037997 -0.218998 0.317417 0.107508 -0.216059 0.069161 -0.430397 -0.006754 -0.102008 -0.332037 0.080278 -0.117556 0.026781 0.299275 -0.093607 0.136323 -0.269520 0.124545 -0.354495 0.102403 0.255594 0.011498 0.021930 0.283707 -0.491075 -0.182595 0.271146 0.140949 -0.061351 0.521075 -0.017526 0.119082 0.060830 -0.013160 0.369449 0.073530 -0.072160 0.231451 0.022716 -0.238051 -0.335777 0.088050 -0.010775 0.220247 0.232292 -0.214449 -0.052419 0.119330 -0.055665 -0.012242 -0.095831 0.072319 0.063489 0.106759 -0.143713 -0.180564 -0.240647 -0.325128 0.222511 -0.159154
223 -0.075126 -0.016439 -0.090921 0.200641 0.081152 -0.176295 0.078381 0.020853 -0.149483 0.207479 -0.257231 -0.007042 -0.092762 -0.297108 -0.002438 -0.099187 -0.048994 0.397004 0.008955 0.210391 -0.223844 0.112302 -0.401106 0.043339 0.172961 -0.121625 -0.095748 0.214533 -0.296901 -0.203357 0.197960 0.183186 -0.060406 0.491687 -0.016731 0.094524 -0.153679 0.073951 0.263243 -0.176987 -0.153528 0.288666 0.055431 -0.257294 -0.173854 0.078694 -0.022355 0.104987 0.299443 -0.136647 -0.059154 0.186572 0.197637 -0.122498 0.027593 0.212554 0.123905 0.111382 -0.211521 -0.147264 -0.163406 -0.308948 0.134770 -0.087437
401 -0.036492 -0.120908 0.039047 0.357651 0.041563 -0.091289 0.042122 0.044801 -0.087146 0.280390 -0.193064 -0.067230 0.020971 -0.292867 -0.008374 -0.154897 -0.006721 0.376852 -0.115019 0.118218 -0.287770 0.116256 -0.251564 0.089601 0.323435 -0.168247 -0.023462 0.218112 -0.239595 -0.337757 0.258933 0.092187 -0.002879 0.447549 0.052529 0.208491 -0.033233 -0.012113 0.247366 -0.154809 -0.037499 0.120853 -0.004823 -0.205550 -0.331083 0.161843 -0.000549 0.038222 0.337340 -0.161347 -0.139538 0.190053 0.123287 -0.140358 0.067137 0.160801 0.080930 0.217581 -0.040083 -0.103320 -0.090199 -0.261055 0.184049 -0.131738
41 -0.087917 0.001351 -0.304106 0.214404 -0.025614 -0.313155 0.124151 0.083252 -0.229301 0.275988 -0.254501 -0.024309 -0.032301 -0.409679 -0.038368 -0.166588 -0.025832 0.334517 -0.064489 0.236930 -0.172207 0.145397 -0.330964 0.071867 0.307567 -0.113420 0.113657 0.216084 -0.460230 -0.153218 0.157709 0.050090 0.027946 0.454010 0.012159 0.159788 0.026781 -0.022004 0.386965 -0.177202 -0.179313 0.308832 0.040676 -0.213749 -0.468604 0.185295 -0.009570 0.149559 0.339723 -0.190928 0.033354 -0.044778 0.054740 -0.030789 0.027490 0.089015 0.148309 0.132593 -0.167652 -0.113627 -0.223322 -0.395399 0.186082 -0.224818
193 -0.141805 0.011197 -0.125225 0.313323 -0.021393 -0.226601 0.235698 0.112710 -0.208577 0.062506 -0.422985 -0.025944 0.010917 -0.407812 0.057046 -0.164208 -0.090478 0.304333 -0.011712 0.175323 -0.171350 0.199821 -0.343825 0.072177 0.194426 0.075670 0.032519 0.228676 -0.344462 -0.259092 0.267647 0.160654 -0.032762 0.421139 -0.058430 0.061559 -0.008538 0.009022 0.398951 -0.059892 -0.007627 0.200361 -0.025201 -0.104811 -0.416328 0.061796 0.040778 0.178759 0.447621 -0.188753 0.068475 0.137208 0.149700 0.040920 0.003138 0.252753 0.097896 0.066779 -0.127030 -0.068387 -0.337782 -0.364598 0.088971 -0.210645
127 -0.226914 -0.104362 -0.133224 0.257875 -0.060481 -0.191866 0.253108 0.106324 -0.188742 0.211843 -0.298849 0.049183 -0.117788 -0.440658 -0.000225 -0.122287 0.123657 0.277666 -0.132247 0.343094 -0.347352 0.162680 -0.244519 0.140405 0.133431 -0.008623 0.090788 0.282541 -0.397212 -0.157220 0.134072 0.095901 -0.047561 0.399977 -0.014838 0.058472 0.118079 -0.029923 0.563371 -0.205626 -0.088631 0.380178 -0.209416 -0.200842 -0.479566 0.230866 0.111664 0.165303 0.277307 -0.190071 -0.013799 0.039109 0.099305 -0.097881 0.034188 0.060828 0.142795 0.118834 -0.125128 -0.142624 -0.263525 -0.315359 0.253800 -0.227338
140 -0.182856 0.138994 -0.160929 0.268285 0.126746 -0.179724 0.165917 -0.039400 -0.217742 0.197491 -0.340755 -0.075343 0.030439 -0.279427 -0.041017 -0.114589 -0.067616 0.357704 -0.060963 0.292389 -0.231646 0.181950 -0.358178 -0.016333 0.238639 -0.133652 0.052721 0.264909 -0.381242 -0.208915 0.156836 0.123667 -0.129363 0.492827 0.055859 0.116506 -0.112881 -0.029843 0.246036 -0.025436 -0.020727 0.260135 -0.006293 -0.294126 -0.292154 0.128036 -0.022551 0.135392 0.283258 -0.264761 0.048364 0.133608 0.127491 -0.057425 0.027617 0.215919 0.091360 0.085764 -0.169552 0.006346 -0.218220 -0.251360 0.135830 -0.146366
39 -0.058145 -0.005090 -0.172949 0.228023 -0.063791 -0.285289 0.235669 0.094058 -0.242806 0.164828 -0.261155 -0.026286 -0.151856 -0.420809 -0.056999 -0.172730 0.141182 0.319197 0.049427 0.231365 -0.249027 0.165829 -0.354829 0.074689 0.151981 -0.039925 0.139568 0.224492 -0.382211 -0.157576 0.139871 0.127231 -0.000786 0.481860 0.036059 0.158066 -0.042174 0.100258 0.484479 -0.172982 -0.059983 0.254664 -0.126725 -0.147289 -0.388447 0.097719 -0.027512 0.247683 0.387454 -0.226068 0.108891 0.083381 0.136296 -0.072311 0.050675 0.162334 0.160343 0.159531 -0.103437 -0.146205 -0.173582 -0.316032 0.110794 -0.339995
226 -0.152323 -0.023178 -0.083487 0.172913 0.091569 -0.211532 0.191120 -0.028301 -0.192327 0.171454 -0.257719 0.080277 -0.071216 -0.405147 -0.078468 -0.124084 0.071787 0.374726 -0.048426 0.260359 -0.218243 0.056618 -0.298976 0.075343 0.254611 0.069725 -0.026357 0.153639 -0.357246 -0.273806 0.091514 0.217541 -0.120370 0.542423 -0.045433 0.233583 -0.048897 0.213739 0.227659 -0.110489 -0.024595 0.140325 -0.019920 -0.236822 -0.303777 0.114482 -0.045576 0.076318 0.264139 -0.150452 0.064875 0.167540 0.156260 -0.139798 0.115101 0.159663 0.104056 0.113865 -0.223855 -0.143260 -0.146408 -0.303922 0.165555 -0.136957
190 -0.091362 -0.114272 -0.130616 0.172685 0.049455 -0.207226 0.285776 0.050181 -0.273155 0.137669 -0.418391 0.013083 0.046820 -0.374267 -0.002003 -0.174175 0.036794 0.238075 -0.026242 0.171745 -0.247818 0.309819 -0.350874 -0.056995 0.284578 -0.058680 0.125767 0.295474 -0.247379 -0.121583 0.115457 0.175646 0.059289 0.450591 0.020494 0.163955 0.007231 0.023794 0.450082 -0.031137 -0.079458 0.381656 -0.066377 -0.228690 -0.305055 0.272052 -0.056002 0.172058 0.364706 -0.234420 -0.020787 0.161006 0.165099 0.041490 0.027431 0.197388 0.019183 0.158022 -0.159119 -0.221668 -0.267042 -0.347552 0.124351 -0.221017
400 -0.159270 0.044228 -0.007379 0.338317 -0.069269 -0.139432 0.089568 0.051651 -0.178530 0.164319 -0.166430 0.032374 0.009792 -0.317186 0.075756 -0.197964 0.029023 0.384259 0.003691 0.187434 -0.249035 0.161663 -0.236829 -0.009839 0.281980 -0.059881 0.077200 0.247334 -0.245963 -0.231944 0.146570 0.089618 -0.082124 0.459820 0.177146 0.143356 -0.104027 0.197190 0.189960 -0.067323 -0.037425 0.207471 -0.041583 -0.249385 -0.228053 0.089862 0.011906 0.198446 0.306700 -0.224308 -0.004370 0.043722 0.163293 0.007983 0.052174 0.218873 0.046925 -0.063966 -0.157836 -0.178838 -0.188998 -0.225016 0.202388 -0.022032
198 -0.165483 0.012616 -0.176065 0.229387 -0.007283 -0.201927 0.237858 0.025144 -0.196426 0.115585 -0.228244 -0.053426 0.010741 -0.335473 0.042008 -0.237227 0.057750 0.243920 -0.040539 0.189506 -0.256317 0.152829 -0.412082 0.110978 0.213495 -0.001182 0.123754 0.296163 -0.411016 -0.207901 0.185089 0.162723 -0.121874 0.505361 -0.093739 0.198993 -0.097494 0.106351 0.306888 -0.102793 0.018846 0.219685 -0.104384 -0.141415 -0.338544 0.099281 0.040616 0.217087 0.404721 -0.182289 0.132600 0.207478 0.057582 -0.023431 -0.053404 0.275733 0.058286 0.098321 -0.163775 -0.174769 -0.232248 -0.355408 0.239275 -0.234479
449 -0.142698 -0.041554 -0.247833 0.194180 -0.078630 -0.279870 0.220685 0.201600 -0.244991 0.160823 -0.337436 0.156860 0.013932 -0.374451 -0.017165 -0.264117 -0.019146 0.127733 0.119392 0.229248 -0.286809 0.145834 -0.333970 0.083900 0.244284 0.011528 0.075019 0.389518 -0.427529 -0.083560 0.150103 0.181055 -0.025739 0.402115 0.014526 0.141627 -0.198328 0.085220 0.445982 -0.147382 -0.100192 0.433084 -0.010144 -0.261295 -0.382105 0.127119 -0.003475 0.134891 0.269079 -0.247681 -0.073251 0.075053 0.132353 -0.185548 0.102948 0.232975 0.185734 0.087038 -0.086999 -0.206734 -0.352900 -0.321599 0.243745 -0.150267
450 -0.129088 -0.155070 -0.120575 0.062054 -0.018708 -0.235379 0.319075 0.122876 -0.237357 0.148677 -0.332784 -0.026142 0.035818 -0.473450 0.009240 -0.148653 0.024688 0.123320 -0.094447 0.257890 -0.314250 0.190347 -0.368844 0.146825 0.236365 0.044465 0.185218 0.343061 -0.289501 -0.240508 0.164704 0.238594 0.012951 0.367722 0.013756 0.127471 0.011744 0.102373 0.445918 -0.128508 -0.138000 0.362689 -0.111631 -0.228259 -0.488470 0.174295 0.163785 0.189808 0.418213 -0.200801 -0.136962 0.058119 0.152785 -0.094228 0.092562 0.153964 0.051153 0.128724 -0.056553 -0.109288 -0.307905 -0.289474 0.202286 -0.212975
38 -0.052286 0.005537 -0.261936 0.120271 -0.038782 -0.167440 0.134866 0.152535 -0.232280 0.244581 -0.217766 -0.040187 -0.048027 -0.407250 -0.068184 -0.249453 0.076621 0.187159 -0.084176 0.178282 -0.317038 0.178206 -0.440210 0.077329 0.285761 -0.059350 0.038971 0.339800 -0.427139 -0.175969 0.283396 0.143515 0.080155 0.386671 0.161027 0.113718 0.078134 -0.009906 0.342643 -0.140168 -0.181447 0.313306 -0.061135 -0.314170 -0.434389 0.173948 0.048406 0.154831 0.390427 -0.223291 0.019594 0.040836 0.030978 -0.108692 0.120177 0.207807 0.013193 0.010382 -0.193112 -0.221774 -0.375509 -0.262014 0.203473 -0.193066
52 -0.056296 -0.118964 -0.188275 0.218665 -0.008369 -0.241991 0.201269 0.098365 -0.192818 0.229437 -0.351341 0.012312 -0.109319 -0.469152 -0.064567 -0.171320 -0.010311 0.292633 0.034429 0.260090 -0.300365 0.197691 -0.405560 0.050597 0.209711 0.033284 0.174597 0.305676 -0.482580 -0.205694 0.094168 0.090263 0.081039 0.442879 0.049498 0.241920 -0.045091 0.129375 0.346578 -0.087759 -0.146239 0.281857 -0.032691 -0.194357 -0.313327 0.079711 0.031434 0.137325 0.273903 -0.265922 -0.037783 0.157489 0.056276 -0.024460 0.116926 0.162186 0.017198 0.155574 -0.203154 -0.094379 -0.384186 -0.303744 0.127820 -0.202791
191 -0.085908 -0.066338 -0.248666 0.288938 -0.087619 -0.219693 0.258785 0.031276 -0.217671 0.123034 -0.298048 -0.088258 -0.006899 -0.406842 0.076444 -0.171189 -0.043389 0.329786 -0.117983 0.235814 -0.327034 0.113111 -0.228859 0.046993 0.240655 -0.104269 -0.003903 0.236854 -0.380741 -0.208532 0.177522 0.153561 0.010208 0.396013 -0.004392 0.147249 0.007701 0.092852 0.466104 -0.147869 -0.040245 0.288945 -0.062150 -0.104606 -0.469808 0.112614 -0.038141 0.164477 0.359363 -0.302877 -0.037393 0.242117 -0.002553 -0.014384 -0.002456 0.176151 0.074978 0.197355 -0.195762 -0.138990 -0.267298 -0.300190 0.135991 -0.279943
192 0.021669 -0.012619 -0.209301 0.233217 -0.110443 -0.186352 0.268929 0.124079 -0.194577 0.189886 -0.456194 -0.065816 -0.042619 -0.404577 0.015894 -0.173121 -0.092044 0.418528 -0.043603 0.241364 -0.220894 0.142017 -0.299544 0.073634 0.232924 -0.015627 0.081218 0.378397 -0.439156 -0.228966 0.159397 0.120535 -0.101916 0.394882 -0.038832 0.118631 0.011358 0.004395 0.294507 -0.130878 -0.046239 0.232090 0.024392 -0.158982 -0.428659 0.182793 -0.010622 0.169048 0.411531 -0.294831 0.031712 0.086349 0.088826 -0.094614 -0.088396 0.213255 0.102661 0.098096 -0.227596 -0.079783 -0.243725 -0.298267 0.150184 -0.102699
129 -0.013491 -0.129435 -0.217137 0.130185 -0.099653 -0.231781 0.233752 0.065302 -0.269798 0.046530 -0.396400 0.075450 -0.043742 -0.470346 -0.093663 -0.180643 0.076158 0.285479 0.005596 0.331073 -0.201459 0.140762 -0.343558 0.093565 0.135946 -0.004822 -0.027626 0.400463 -0.377058 -0.241037 0.218746 0.119924 0.051341 0.434433 -0.013385 0.092822 0.053545 0.114010 0.450483 -0.287307 -0.070575 0.395089 0.020305 -0.328988 -0.317000 0.131599 0.095953 0.108929 0.390292 -0.124212 0.074433 0.172742 0.008149 -0.105237 0.073160 0.181077 0.050336 0.198858 -0.017429 -0.127283 -0.340875 -0.287830 0.119750 -0.250674
128 -0.132638 -0.114669 -0.219917 0.088548 0.039368 -0.238022 0.265826 0.080843 -0.239598 0.043975 -0.251989 0.079354 -0.044935 -0.498094 0.020469 -0.179458 0.112339 0.222056 -0.124585 0.319572 -0.299991 0.099726 -0.393595 0.149965 0.160423 0.014571 0.160724 0.352539 -0.291527 -0.166279 0.137340 0.339132 -0.025815 0.459331 -0.133078 0.098847 -0.099478 0.107498 0.398549 -0.140567 -0.097925 0.331349 0.008704 -0.354555 -0.505416 0.217777 -0.054961 0.070120 0.264385 -0.171236 0.042857 0.162684 0.132977 -0.092009 0.012126 0.147336 0.109772 0.103236 -0.077447 -0.176322 -0.287729 -0.303305 0.220431 -0.220911
306 -0.053958 -0.018371 -0.268579 0.258560 0.049159 -0.206415 0.305387 0.192591 -0.184562 0.166468 -0.368835 0.126143 0.027080 -0.454751 -0.136515 -0.193977 0.055987 0.255121 0.065690 0.277167 -0.227855 0.248667 -0.368323 0.166337 0.149267 -0.022020 0.107501 0.268386 -0.491161 -0.276734 0.114552 -0.010146 -0.094091 0.397192 -0.036414 0.127940 -0.083038 0.074365 0.413415 -0.162232 -0.216751 0.334238 -0.142806 -0.340169 -0.366040 0.158201 -0.090057 0.104326 0.389235 -0.242398 -0.058467 0.068382 0.111697 -0.208408 0.114044 0.036809 0.077627 0.098791 0.026272 -0.108824 -0.331388 -0.203429 0.127015 -0.203437
370 -0.062887 -0.034176 -0.254423 0.180280 0.114026 -0.166718 0.219459 0.059572 -0.208925 0.147883 -0.437142 0.015873 0.129910 -0.527926 0.021745 -0.143337 0.105465 0.154459 -0.076833 0.219923 -0.249009 0.159232 -0.407623 0.139120 0.239402 -0.006347 0.099120 0.371337 -0.296096 -0.137555 0.060470 0.114877 -0.069735 0.442510 0.006837 0.142982 -0.214426 -0.029462 0.348677 -0.152814 -0.119556 0.467778 -0.063937 -0.231859 -0.598913 0.065944 0.003288 0.153667 0.372077 -0.248891 -0.024494 -0.044687 0.097849 -0.147563 0.138426 -0.022411 0.081667 0.132418 0.003192 -0.125318 -0.210440 -0.355386 0.159925 -0.148172
309 0.011714 -0.010860 -0.221273 0.232545 -0.040814 -0.146431 0.173588 0.133502 -0.078148 0.113126 -0.222913 -0.037521 0.010828 -0.487225 -0.022917 -0.160090 0.031567 0.236483 -0.013654 0.189722 -0.115835 0.230785 -0.381860 0.160330 0.076854 0.117945 -0.011371 0.277029 -0.328420 -0.076235 0.172088 0.211596 0.090831 0.384173 -0.036926 0.080783 -0.190306 0.056571 0.401259 -0.184702 0.003609 0.375453 -0.071305 -0.293824 -0.609037 0.223810 0.052755 0.139461 0.416431 -0.277133 -0.076693 0.025664 0.062332 -0.111348 0.095046 0.101004 0.085410 0.061854 -0.090442 -0.145674 -0.327717 -0.302249 0.293409 -0.250602
293 -0.036916 0.028997 -0.121271 0.049753 -0.033467 -0.177158 0.215557 0.159960 -0.058666 0.149294 -0.363284 -0.085445 -0.068111 -0.371732 -0.094937 -0.223637 -0.141820 0.384098 0.004969 0.288139 -0.236000 0.128413 -0.288256 0.066961 0.099513 0.019089 0.081464 0.291280 -0.414427 -0.252023 0.130098 0.212830 0.044315 0.555132 0.109333 0.143827 -0.014576 0.039958 0.411734 -0.098356 -0.084431 0.303046 -0.119805 -0.308417 -0.435564 0.041963 0.122845 0.190997 0.369420 -0.139273 0.036016 0.216757 0.088769 -0.069651 0.047407 0.208522 0.036035 0.125160 -0.146521 -0.149312 -0.327770 -0.211464 0.250578 -0.247199
135 -0.291098 -0.147219 -0.024760 0.235448 0.068207 -0.089890 0.065410 0.093397 -0.134917 0.084073 -0.177737 -0.104128 -0.062275 -0.258799 0.174473 -0.149699 0.088352 0.200525 0.002740 0.189577 -0.126368 0.107716 -0.224291 0.102830 0.011245 0.033810 -0.091667 -0.039307 -0.206469 -0.165774 0.241790 0.038408 -0.127013 0.257230 0.068367 0.403251 -0.083837 0.091982 0.086282 0.021559 -0.131514 0.177995 -0.003127 -0.174655 -0.225918 0.077555 0.198140 0.050680 0.305257 -0.146571 -0.276287 0.037599 0.009522 0.183661 0.036266 0.126010 0.114460 0.093571 -0.061314 -0.018319 0.050290 -0.170991 0.081271 0.032246
134 -0.053672 -0.069229 -0.086750 0.243606 0.049251 -0.060584 0.027249 0.004918 -0.132821 0.031133 -0.051945 -0.029870 -0.138380 -0.181024 0.045368 -0.077351 0.152263 0.155618 -0.018356 0.206988 -0.107968 0.170538 -0.268441 0.162871 0.091304 -0.028884 -0.034185 -0.001314 -0.086370 -0.200169 0.125060 0.031856 -0.028393 0.321523 0.109789 0.256200 -0.046700 0.080878 0.114675 0.096616 -0.295929 0.265035 -0.121198 -0.265233 -0.297698 0.020250 0.138865 0.061166 0.260081 -0.031169 -0.280101 -0.001704 0.049955 0.216904 -0.089351 0.219009 0.295761 0.111472 -0.057802 -0.020105 0.052063 -0.139443 0.153881 0.019500
98 -0.130412 -0.116790 0.001767 0.071905 0.118881 -0.078982 0.135974 0.049999 -0.230103 0.083006 -0.097958 0.017850 -0.053081 -0.328241 0.030784 -0.199241 0.110374 0.302772 -0.057448 0.148114 -0.029899 0.122643 -0.056016 0.154879 0.108711 0.005119 -0.038683 0.224617 -0.254230 -0.238723 0.154626 0.080586 0.039900 0.233101 0.258416 0.156615 -0.146882 0.134454 0.169447 -0.046462 -0.046425 0.288741 -0.059973 -0.358787 -0.290701 0.028577 0.316264 -0.052522 0.278195 -0.260238 -0.069730 0.118067 0.070599 -0.089499 0.122034 0.217899 0.164791 0.008438 -0.004593 -0.174933 -0.072128 -0.248443 0.230566 -0.105844
347 -0.042911 -0.156589 -0.046686 0.252422 0.022949 -0.038020 0.065516 -0.033388 -0.136764 0.135048 -0.216492 -0.064663 0.085926 -0.293031 0.008011 -0.090384 0.089337 0.394359 -0.074087 0.229824 -0.244951 0.184932 -0.232181 -0.080541 0.283976 -0.218496 0.043047 0.114636 -0.341777 -0.195629 0.282841 0.051239 -0.184824 0.340976 0.209944 0.133592 -0.064770 0.174104 0.193155 0.042930 -0.138318 0.172220 -0.064552 -0.270832 -0.264483 -0.034399 0.061057 0.004156 0.324925 -0.150638 -0.029208 0.174874 0.194065 -0.164048 0.026183 0.165437 0.127492 0.078835 -0.221078 -0.133195 -0.112437 -0.291881 0.138656 -0.035812
225 0.062160 -0.057934 -0.031790 0.253131 0.023485 -0.308860 0.097878 0.013921 -0.172403 0.135146 -0.259983 -0.071866 -0.024893 -0.179345 0.040372 -0.158825 0.077767 0.339561 -0.061021 0.245232 -0.332986 0.267154 -0.337219 -0.043009 0.278440 -0.005628 -0.002786 0.182912 -0.400381 -0.297850 0.139197 0.078573 -0.087331 0.439682 -0.039392 0.125674 -0.036643 0.121026 0.202725 -0.024216 0.030215 0.107947 -0.136641 -0.181670 -0.278063 0.102451 -0.003011 0.138615 0.306748 -0.361527 0.021250 0.082955 0.159248 -0.212278 -0.028224 0.225271 0.193588 0.123110 -0.112849 -0.148738 -0.228379 -0.344317 0.204471 0.063824
308 -0.104931 -0.043358 -0.160615 0.143200 -0.047431 -0.175701 0.327381 0.177165 -0.175557 0.219312 -0.264344 0.045788 -0.086947 -0.458642 -0.051561 -0.116809 0.115415 0.263898 0.047825 0.237784 -0.394522 0.276898 -0.427195 0.123913 0.122180 0.027686 0.006665 0.310671 -0.324946 -0.199685 0.099855 0.141988 -0.109713 0.436596 0.072990 0.022813 -0.118219 0.076046 0.336010 -0.160397 -0.151937 0.350257 0.024598 -0.183277 -0.522343 0.180712 0.126623 0.160680 0.222220 -0.223103 -0.004813 0.058061 0.030192 -0.082563 0.077267 0.135126 0.249400 -0.002005 -0.062536 -0.234728 -0.310595 -0.406383 0.091966 -0.262014
87 -0.112694 -0.069337 -0.062520 0.109805 0.054581 -0.172205 0.123308 0.002151 -0.096870 0.098415 -0.384050 -0.121862 -0.049669 -0.210659 0.050687 -0.141025 -0.038762 0.249598 0.007205 0.238282 -0.207540 0.215733 -0.268819 0.066806 0.294401 -0.052688 -0.012766 0.248448 -0.388371 -0.199480 0.158673 0.231588 0.000988 0.582749 -0.006424 0.213642 -0.057009 0.024607 0.160476 -0.090288 0.114814 0.137800 -0.110924 -0.350742 -0.279261 0.074564 -0.125897 0.097534 0.350632 -0.214579 -0.132338 0.185260 0.103544 -0.176809 0.006116 0.125826 -0.001752 0.085765 -0.188150 -0.111659 -0.125276 -0.354635 0.257791 -0.077624
96 -0.130421 -0.003716 -0.042399 0.198394 -0.047945 -0.198772 0.107882 -0.032352 -0.185007 0.132243 -0.311531 -0.093136 -0.033601 -0.254555 -0.055934 -0.154553 0.062901 0.335745 -0.033424 0.191200 -0.143978 0.090970 -0.270023 -0.090866 0.263831 0.050426 -0.031052 0.108964 -0.378878 -0.217951 0.107947 0.020353 -0.067527 0.363307 0.163862 0.185860 0.009665 0.183262 0.155179 -0.078521 0.010566 0.124555 -0.091541 -0.260970 -0.325484 -0.032317 -0.030592 0.236581 0.223949 -0.116129 -0.038118 0.149897 0.117586 -0.040642 -0.054081 0.178699 0.270737 0.123014 -0.100021 -0.097455 -0.090358 -0.304980 0.260814 0.003949
316 -0.208064 -0.070726 -0.008915 0.181816 0.020424 -0.172861 0.042029 0.015459 -0.118843 0.037776 -0.165375 -0.003703 -0.030324 -0.194909 0.059388 -0.185123 0.183391 0.344535 -0.045923 0.226135 -0.034414 0.209436 -0.150249 0.180389 -0.041621 0.072431 0.034018 0.055501 -0.077925 -0.077114 0.248342 0.049473 -0.063511 0.272433 0.163395 0.190520 -0.047336 0.105977 0.080470 0.093715 -0.102024 0.128233 -0.085801 -0.301847 -0.326688 0.038597 0.127160 0.103778 0.350791 -0.155518 -0.278820 -0.097220 0.031783 0.078881 0.000676 0.226848 0.069952 0.097017 -0.007881 -0.036138 0.048062 -0.053039 0.123741 0.060135
461 -0.214139 -0.015204 -0.005888 0.181747 0.011948 -0.161506 -0.035706 0.053747 -0.170339 -0.033219 -0.104305 -0.068740 -0.115406 -0.251067 0.052429 -0.306067 0.148882 0.225215 -0.065726 0.144621 -0.083387 0.032067 -0.073394 0.242932 0.118074 0.020578 -0.033556 0.103387 -0.065517 -0.036571 0.210894 0.019583 -0.102113 0.390803 0.115677 0.141469 0.059890 0.180978 0.009978 -0.017613 -0.199479 0.271066 -0.100844 -0.244659 -0.224702 0.105441 -0.055452 0.157289 0.228755 -0.268202 -0.333958 0.038428 0.060710 0.122110 -0.017674 0.174154 0.205093 0.096899 -0.000779 0.107672 0.097220 -0.111954 0.209681 0.050452
484 -0.146869 0.066384 -0.175531 0.364189 0.026756 -0.223834 0.213185 0.140941 -0.293785 0.141912 -0.245845 0.102480 -0.034263 -0.347066 -0.097235 -0.150009 0.054311 0.276750 -0.022326 0.168617 -0.173221 0.077856 -0.047687 0.059990 0.350060 0.085324 -0.041620 0.283948 -0.210141 -0.085720 0.004640 0.157097 -0.080033 0.191534 0.087329 0.080446 -0.119121 0.174779 0.278282 -0.101101 0.027728 0.392342 -0.142535 -0.341469 -0.470641 0.124193 0.104329 0.118639 0.322822 -0.169442 -0.178927 0.083009 0.109559 -0.053672 0.168310 0.226783 0.133047 0.031179 0.114293 -0.200061 -0.223021 -0.297988 0.036690 -0.144858
93 -0.031490 0.017828 -0.024065 0.239433 0.023978 -0.075614 0.098933 -0.094076 -0.093673 0.096829 -0.252540 -0.019296 -0.005666 -0.301012 0.080478 -0.210051 0.029973 0.243863 -0.005070 0.226121 -0.230694 0.237111 -0.274580 0.053301 0.127630 -0.018782 -0.056783 0.117180 -0.332810 -0.367555 0.103284 -0.104125 -0.074016 0.390447 0.016396 0.161099 -0.044742 0.162829 0.199475 -0.229756 -0.007183 0.095662 -0.040784 -0.428585 -0.239009 0.030922 -0.084455 0.159625 0.324292 -0.092984 -0.058519 0.149012 0.124939 0.085159 -0.095407 0.141987 0.089028 0.247816 -0.127316 -0.054280 -0.149936 -0.148419 0.119092 -0.044512
181 -0.100524 -0.084722 -0.188479 0.265473 0.093603 -0.210805 0.224044 -0.008781 -0.279491 0.077415 -0.146268 0.173797 -0.028074 -0.373902 -0.098162 -0.109660 0.025953 0.212019 -0.087645 0.040122 -0.049022 0.072558 -0.219196 0.115489 0.257114 -0.025713 -0.037973 0.262018 -0.252803 -0.284420 0.046354 0.114138 0.054438 0.334799 0.109708 0.217782 -0.147454 0.035595 0.337202 -0.193368 -0.098393 0.366969 0.029957 -0.196561 -0.509264 0.074661 0.082904 0.076212 0.289316 -0.224781 -0.217155 0.102098 0.005239 0.038874 0.087035 0.229160 0.205020 0.016873 0.036120 -0.285203 -0.290016 -0.264506 0.155848 -0.073106
37 -0.130975 -0.108007 -0.047682 0.309292 0.149464 -0.118478 0.284171 0.065347 -0.195317 0.065844 -0.144933 0.105830 0.048398 -0.306409 0.025779 -0.196452 0.171183 0.293030 -0.087390 0.152268 -0.159785 0.020400 -0.142383 0.167022 0.139510 0.156039 -0.069383 0.208457 -0.296717 -0.196211 0.088570 0.140221 -0.157629 0.163742 0.082123 0.044459 -0.263638 0.107959 0.180199 -0.064998 -0.106464 0.296094 -0.035606 -0.370352 -0.421374 -0.013328 0.184731 0.029889 0.348468 -0.239572 -0.044281 0.140677 -0.178599 0.040947 0.085858 0.154327 -0.024741 0.131822 -0.019274 -0.178471 -0.202676 -0.141902 0.266669 -0.126457
136 -0.123214 -0.008105 -0.004937 0.263834 0.102033 0.029589 -0.043722 -0.014290 -0.250424 -0.025796 -0.253219 0.037934 -0.016774 -0.183995 0.141884 -0.168983 0.058500 0.225482 -0.049375 0.152934 0.008674 0.097512 -0.217549 0.069581 0.058034 0.080658 -0.168738 0.105523 -0.198751 -0.238889 0.245067 0.027272 -0.032854 0.319699 0.102700 0.259797 -0.055376 0.061670 0.073262 -0.035334 -0.197901 0.253822 0.100917 -0.152882 -0.376937 0.034767 0.238165 0.056648 0.236633 -0.052562 -0.274680 -0.050066 0.041970 0.147772 -0.199469 0.043416 0.176998 0.106960 -0.134146 0.123394 -0.012863 -0.051482 0.060067 -0.009664
307 -0.032246 -0.091761 -0.179619 0.164182 -0.060510 -0.125011 0.238340 0.110558 -0.253517 0.226378 -0.330907 -0.021613 0.126963 -0.516537 -0.083784 -0.114310 0.204792 0.143759 0.127787 0.156871 -0.231132 0.242699 -0.380850 0.171886 0.110632 0.002514 0.114922 0.342535 -0.368961 -0.217060 0.027353 0.157964 0.018661 0.467281 0.085186 0.248322 -0.101248 0.041910 0.371207 -0.282471 -0.106008 0.338656 -0.138038 -0.257328 -0.494177 0.230224 0.158943 0.209184 0.365841 -0.338253 -0.060955 0.024886 -0.050449 -0.150347 0.036672 0.064327 0.120933 0.074041 -0.122853 -0.127791 -0.281356 -0.260864 0.144772 -0.160400
364 -0.069205 -0.143240 -0.056003 0.235401 0.113716 -0.038623 0.132769 0.046665 -0.092402 0.092673 0.026588 0.037478 -0.047954 -0.236244 0.044958 -0.173793 0.138396 0.336514 -0.018209 0.133936 -0.105241 0.102839 -0.260450 0.187052 0.038261 0.123123 -0.041124 0.257439 -0.281691 -0.192846 0.061267 0.011359 -0.092108 0.225535 0.199995 0.020372 -0.100411 0.081614 0.234033 0.041163 -0.080143 0.346302 -0.046616 -0.288765 -0.278068 0.182351 0.034101 0.052677 0.334338 -0.379620 -0.099799 0.023303 0.069743 0.028301 -0.021614 0.140686 0.164129 0.034085 0.054855 -0.186378 -0.166020 -0.287838 0.119460 -0.086508
11 -0.132754 -0.031704 -0.086146 0.132807 0.140042 -0.259874 0.407774 0.064086 -0.240786 0.123114 -0.188012 0.133893 0.087430 -0.224980 -0.212239 -0.172899 0.108928 0.274882 0.032320 0.113764 -0.022259 0.243778 -0.249260 0.134965 0.076446 -0.084860 -0.032655 0.371945 -0.289189 -0.165509 0.074074 0.104468 -0.073275 0.447566 -0.017663 0.138803 -0.113417 0.150065 0.310346 -0.120515 -0.031504 0.294058 -0.077194 -0.305375 -0.567924 0.136340 0.044837 0.054165 0.289575 -0.205959 -0.056770 0.041448 0.074686 -0.074523 -0.097857 0.248674 0.060447 -0.023456 0.114527 -0.199865 -0.253684 -0.343659 0.201150 -0.146008
184 -0.073634 -0.204704 -0.113121 0.282874 0.021571 -0.076343 0.249189 0.143704 -0.106059 0.122849 -0.245222 0.016661 -0.065502 -0.391565 -0.078548 -0.098640 0.027783 0.294252 -0.070944 0.180918 -0.065870 0.160370 -0.133076 0.126833 0.194754 0.003453 -0.030902 0.262205 -0.320738 -0.099852 0.072856 0.176193 -0.064950 0.435227 0.078271 0.035371 -0.242780 -0.022393 0.311503 -0.180357 0.057590 0.313639 0.007898 -0.298940 -0.464589 0.106398 0.041075 0.031169 0.268773 -0.230638 -0.263555 0.083046 0.024037 -0.061974 0.138929 0.268262 0.116214 0.030603 0.011488 -0.166644 -0.228522 -0.260215 0.161969 -0.048474
10 -0.047661 0.068629 -0.025883 0.204783 0.096841 -0.136983 0.215258 0.079234 -0.194727 0.111134 -0.169099 0.142762 -0.024400 -0.388598 -0.155680 -0.158118 0.062817 0.235737 -0.031113 0.156317 -0.138407 0.198923 -0.284213 0.122316 0.167131 0.065874 0.000012 0.292774 -0.389470 -0.279208 0.050168 0.036684 -0.009608 0.378724 0.316416 0.066891 -0.279266 -0.014606 0.324595 -0.210453 -0.062463 0.204675 0.032169 -0.247172 -0.624644 0.113243 0.018470 0.047540 0.349145 -0.319200 -0.079890 0.056375 0.064240 -0.046971 0.125396 0.089341 0.044709 0.083347 0.050161 -0.188149 -0.209986 -0.214589 0.134568 -0.135471
434 -0.091162 -0.122374 -0.256251 0.214340 0.007812 -0.208249 0.220586 0.185104 -0.237080 0.222744 -0.187750 0.008692 -0.089689 -0.510228 -0.000358 -0.132057 0.001903 0.297698 -0.003082 0.286631 -0.284708 0.209353 -0.383973 0.017371 0.175447 -0.068802 0.131897 0.275235 -0.427372 -0.159850 0.094293 0.223051 0.074358 0.481231 0.068988 0.058525 -0.075120 -0.038694 0.433532 -0.011862 -0.015630 0.274464 -0.095283 -0.152031 -0.374697 0.227012 0.031977 0.188734 0.376260 -0.290818 0.066145 0.077033 -0.013161 -0.037211 0.056634 0.339199 0.127599 0.150889 -0.096699 -0.178289 -0.243073 -0.355690 0.126790 -0.267279
7 -0.056089 -0.089005 -0.016272 0.248866 0.155331 -0.169603 0.110038 -0.154694 -0.085291 0.126775 -0.117856 -0.073911 0.021689 -0.223394 0.047612 -0.181933 0.030513 0.331598 -0.061778 0.182021 -0.228188 0.165773 -0.235884 0.009406 0.221585 -0.048204 -0.040931 0.136072 -0.338467 -0.313274 0.276101 0.080688 -0.036071 0.357093 0.133864 0.205166 0.095333 0.192958 0.198006 -0.066295 -0.056926 0.143798 -0.094001 -0.226932 -0.320735 0.005066 -0.086350 0.194312 0.317861 -0.184250 -0.021594 0.087699 0.184687 0.026598 -0.082148 0.077586 0.123236 0.094847 -0.186404 -0.153249 0.054323 -0.218537 0.078975 -0.073315
369 -0.125109 -0.186835 -0.243803 0.127439 -0.000753 -0.181748 0.385884 0.092114 -0.113322 0.149332 -0.350882 -0.013100 0.108434 -0.475093 0.005926 -0.191735 0.145506 0.267123 0.010664 0.249519 -0.342022 0.190500 -0.354172 0.114906 0.170529 0.045578 0.038463 0.258632 -0.289670 -0.202240 0.078423 0.103038 -0.035778 0.441730 0.007284 0.167376 -0.126239 0.068634 0.420323 -0.165796 -0.135142 0.440612 -0.104304 -0.243947 -0.568948 0.139351 0.069929 0.234731 0.236733 -0.221348 0.014849 0.032247 0.054592 -0.166624 0.095223 0.109972 0.023066 0.132301 0.000554 -0.232146 -0.249965 -0.257634 0.168065 -0.255424
290 -0.150728 -0.135865 -0.146919 0.157441 0.110298 -0.191351 0.276268 0.123300 -0.296146 0.162903 -0.107675 0.176226 0.037777 -0.397318 0.000734 -0.214680 -0.030343 0.213555 -0.069780 0.062549 -0.116051 0.163598 -0.265336 0.165604 0.261799 -0.013410 0.066778 0.372112 -0.419051 -0.143091 0.191044 0.068076 0.051293 0.273191 0.272792 0.099898 -0.170946 0.114868 0.290883 -0.182111 -0.078883 0.338715 0.008076 -0.250215 -0.555303 0.131233 0.017791 0.230293 0.323565 -0.286885 0.001849 0.129244 0.068153 -0.136702 0.139803 0.167830 0.208841 0.036656 0.070801 -0.134093 -0.226832 -0.228689 0.114059 -0.234364
187 -0.124984 -0.161196 -0.133625 0.228753 -0.072837 -0.196728 0.282636 0.232430 -0.269713 0.134805 -0.336989 0.051024 -0.075515 -0.548203 0.011721 -0.195580 -0.062064 0.293175 -0.016275 0.207157 -0.271266 0.137199 -0.420723 0.111584 0.230354 -0.012302 0.126328 0.306770 -0.289925 -0.284841 0.080872 0.173801 0.045554 0.427033 -0.039439 0.049615 0.013992 0.125347 0.397060 -0.011603 -0.141616 0.187296 -0.050929 -0.228211 -0.419124 0.083969 -0.012243 0.126143 0.357566 -0.286521 0.022949 0.119097 0.151882 -0.012856 0.112220 0.250807 0.023195 0.146629 -0.094860 -0.137164 -0.337093 -0.392757 0.199035 -0.273854
36 -0.039777 -0.089759 0.001804 0.222957 0.107750 -0.201607 0.208418 0.091257 -0.150297 0.116471 -0.048768 0.097050 -0.014069 -0.332817 -0.017863 -0.179830 0.135060 0.368502 -0.120029 0.128514 -0.049403 0.075161 -0.218664 0.173518 0.204782 0.083750 -0.031637 0.113321 -0.216168 -0.195911 0.024174 0.192732 -0.122927 0.270614 0.065819 0.083050 -0.219435 0.033585 0.174116 -0.085909 -0.122828 0.358378 -0.137530 -0.339445 -0.346452 0.048362 0.159884 0.118270 0.225024 -0.197141 -0.209681 0.197912 0.013797 -0.081878 0.198725 0.138191 0.141493 0.145377 0.078190 -0.177786 -0.181842 -0.352550 0.203292 -0.199121
12 -0.159953 -0.040848 -0.284388 0.190408 0.086487 -0.113327 0.236264 -0.069647 -0.288010 0.068791 -0.248991 -0.004599 -0.039690 -0.366182 -0.182942 -0.155067 0.159802 0.198692 0.044524 0.129861 -0.094016 0.127869 -0.129172 0.184942 0.224510 -0.002234 0.006439 0.323361 -0.272520 -0.118559 -0.007309 0.104941 0.013779 0.455729 0.134489 0.190645 -0.154800 0.009174 0.258944 -0.242027 -0.033997 0.324060 -0.097787 -0.241875 -0.513541 0.148029 0.140004 0.080967 0.321900 -0.232468 -0.107777 0.089560 0.086289 -0.073841 0.139830 0.098262 0.138769 0.127731 0.093452 -0.169857 -0.229446 -0.318115 0.178398 -0.129946
40 -0.030272 -0.091871 -0.115677 0.255913 0.004124 -0.193058 0.190829 0.119120 -0.187505 0.125510 -0.414490 0.108771 -0.035888 -0.496816 -0.025781 -0.212824 0.110837 0.280750 -0.131754 0.162323 -0.209088 0.181094 -0.373678 0.079956 0.259299 0.045884 0.025654 0.214058 -0.401385 -0.218504 0.169543 0.128931 -0.045021 0.417181 -0.054162 0.097289 0.018388 0.062040 0.521345 -0.054178 -0.067185 0.344778 -0.102888 -0.254642 -0.424400 0.198068 -0.150280 0.180808 0.314589 -0.195601 0.097824 0.032395 0.059203 -0.062143 0.010442 0.100559 0.103532 0.001186 -0.144154 -0.199132 -0.246541 -0.360776 0.249603 -0.152402
15 -0.175197 0.065934 -0.281847 0.206983 0.096069 -0.276170 0.204247 0.182038 -0.294893 0.145981 -0.099438 0.181338 0.003302 -0.405897 -0.048994 -0.063494 0.067144 0.304184 0.003129 0.222917 -0.068724 0.131734 -0.239448 0.145863 0.168990 -0.072911 0.040780 0.337222 -0.295731 -0.196238 0.026866 0.057903 0.015434 0.464713 0.158001 0.137535 -0.101431 -0.088166 0.257023 -0.360207 -0.001286 0.395688 -0.017435 -0.308738 -0.510476 0.170290 0.102419 0.072108 0.387045 -0.201845 -0.077531 -0.027093 0.025009 -0.122839 -0.016472 0.180982 0.219049 0.067039 0.025957 -0.119890 -0.257680 -0.286768 0.039046 -0.166594
367 -0.146888 -0.040561 0.077961 0.156231 0.002314 0.011127 0.303514 0.042437 -0.151918 0.124381 -0.062328 0.121057 -0.078878 -0.277820 -0.038259 -0.136804 0.183142 0.174635 0.060064 0.056451 0.017618 0.106080 -0.258906 0.275061 0.228459 -0.025926 -0.027454 0.089346 -0.312535 -0.342936 0.026812 0.068634 -0.057976 0.180571 0.149844 0.240028 -0.123553 0.122222 0.206344 -0.054143 0.017314 0.406842 -0.027869 -0.165069 -0.388108 0.104948 0.286438 0.058129 0.231106 -0.241697 -0.107875 0.015742 0.133998 0.041965 0.128088 0.177951 0.129734 0.112635 -0.121145 -0.130253 -0.228650 -0.250065 0.180172 -0.089021
14 -0.155738 0.029456 -0.137972 0.153509 0.034621 -0.177815 0.284156 -0.004006 -0.211031 -0.017008 -0.136145 0.042103 -0.013076 -0.418471 -0.049697 0.003235 0.071438 0.243275 0.003080 0.216820 -0.090299 0.181602 -0.248835 0.098091 0.196133 0.021767 0.021017 0.254228 -0.358461 -0.084982 0.106193 0.196936 0.071759 0.372400 0.057429 0.025413 -0.181635 0.087023 0.386617 -0.177703 0.049545 0.348534 -0.016612 -0.197728 -0.531455 0.195145 0.109470 0.122348 0.363703 -0.313980 -0.209122 0.089193 0.058072 0.007192 0.031649 0.251013 0.094324 0.084463 0.074930 -0.261199 -0.100274 -0.320391 0.196663 -0.167571
92 -0.093109 0.030675 0.022923 0.274031 -0.046035 -0.042838 0.111056 -0.011069 -0.196122 0.157653 -0.249520 0.066954 -0.048176 -0.237970 0.000327 -0.083786 0.026270 0.351394 -0.059417 0.182845 -0.302890 0.073204 -0.262379 0.036233 0.179750 -0.024619 -0.134038 0.146968 -0.258479 -0.230012 0.154544 0.086691 -0.072703 0.411818 0.128784 0.222201 -0.088570 0.144952 0.236940 -0.043637 -0.126395 0.101594 -0.113670 -0.226557 -0.162643 0.067024 0.010474 0.099004 0.212251 -0.313169 0.017891 0.118408 0.141696 -0.100695 -0.031900 0.275957 0.202086 0.159467 -0.136214 -0.107839 -0.068899 -0.284545 0.109783 -0.029155
180 -0.087775 -0.056366 -0.152140 0.272293 0.194285 -0.198735 0.275527 0.199048 -0.276393 0.117689 -0.131385 0.125886 -0.021150 -0.252030 -0.229638 -0.037233 0.042715 0.300051 -0.082578 0.202269 -0.130487 0.122881 -0.211013 0.182885 0.122817 -0.072697 0.038220 0.307351 -0.240797 -0.123880 0.158265 0.086389 -0.108845 0.480582 0.177579 0.046438 -0.120080 0.119670 0.463679 -0.105952 -0.056828 0.389364 -0.008689 -0.312885 -0.488653 0.088394 0.012955 0.088353 0.213286 -0.312604 -0.152894 0.016758 0.105012 -0.079980 0.059378 0.068299 0.175154 -0.028045 -0.020494 -0.147810 -0.178828 -0.247382 0.136559 -0.088694
13 -0.201257 0.072762 -0.062602 0.204511 0.105003 -0.264991 0.279367 0.166145 -0.194817 0.224918 -0.129408 0.060809 -0.029097 -0.419986 -0.052328 -0.083145 0.158546 0.213034 0.045823 0.233602 -0.087219 0.032817 -0.287681 0.124993 0.234749 0.044487 -0.087462 0.335086 -0.311492 -0.180372 0.089607 0.091019 0.011977 0.274086 0.151757 0.074621 -0.168736 0.001854 0.334372 -0.246244 -0.032386 0.426884 -0.126623 -0.256980 -0.585151 0.127295 0.054671 0.024274 0.387209 -0.163303 -0.040795 0.040288 0.052158 -0.115715 0.113544 0.195831 0.169281 -0.059819 -0.094341 -0.225402 -0.271557 -0.294938 0.129449 -0.065035
94 -0.149590 -0.038580 -0.038358 0.311752 0.121383 0.017978 0.113827 0.099146 -0.171649 0.160227 -0.282440 -0.033641 -0.060930 -0.220037 0.030621 -0.223542 0.040698 0.201451 -0.063570 0.211000 -0.224281 0.242470 -0.245201 0.025859 0.087083 -0.063279 0.003911 0.161426 -0.278646 -0.161336 0.254109 0.032453 -0.043886 0.267965 0.179061 0.290553 -0.035636 0.250691 0.220183 -0.063120 0.012489 0.095411 -0.021260 -0.295620 -0.126029 0.023546 -0.031238 0.194670 0.305135 -0.088161 -0.127399 0.127345 0.179924 -0.003204 0.046370 0.132769 0.158728 0.079582 -0.243051 -0.118126 -0.075699 -0.313613 0.160926 -0.046793
183 -0.167261 -0.076637 -0.099238 0.163501 0.131546 -0.147331 0.144275 0.053789 -0.136357 0.031025 -0.198357 0.029826 0.082957 -0.347219 -0.124125 -0.073089 0.028881 0.166239 -0.125117 0.168312 -0.141649 0.170172 -0.160898 0.187477 0.256220 0.072575 0.019426 0.277208 -0.339414 -0.132948 0.096438 0.070903 -0.047762 0.351588 0.157852 0.070377 -0.160486 0.247800 0.322145 -0.133023 0.026310 0.290327 -0.011825 -0.284990 -0.477445 0.204693 0.124962 0.066290 0.435417 -0.276850 -0.187658 0.135729 -0.019611 0.043314 0.119939 0.091715 0.164539 0.074666 0.073388 -0.186975 -0.286719 -0.316176 0.150187 -0.100328
117 -0.239372 -0.046501 -0.252973 0.184745 0.048576 -0.308379 0.366046 0.175138 -0.142729 0.008415 -0.317485 -0.008203 -0.102991 -0.441108 -0.046558 -0.157901 0.177922 0.161775 -0.023737 0.332229 -0.140784 0.244869 -0.288716 0.120266 0.045706 -0.071548 -0.097114 0.358148 -0.442822 -0.137147 0.143862 0.165769 -0.086404 0.383918 0.099843 -0.035165 -0.215807 -0.006903 0.384872 -0.191062 -0.084718 0.378275 -0.001743 -0.313186 -0.465819 0.118957 0.104455 0.193201 0.372348 -0.108085 0.108756 0.073958 0.102062 -0.100843 0.140880 0.102349 0.084647 0.075754 0.022208 -0.128669 -0.192124 -0.318998 0.237075 -0.148915
365 -0.181105 -0.155908 -0.097324 0.211231 0.065811 -0.046618 0.142473 0.012926 -0.250113 0.051066 -0.098810 0.026662 -0.012298 -0.299947 -0.116284 -0.220270 0.180695 0.334205 -0.069469 0.112386 -0.112095 0.173937 -0.219868 0.123418 0.214040 0.012247 -0.039440 0.104140 -0.177495 -0.229332 0.057323 0.125125 -0.029231 0.339127 0.144525 0.216104 -0.099976 0.034280 0.258119 -0.186785 -0.060133 0.291961 -0.028744 -0.281372 -0.398432 0.077937 0.180532 0.021513 0.300397 -0.179318 -0.172696 0.100899 -0.010244 0.001077 0.189766 0.092232 -0.016078 0.032855 0.104529 -0.207753 -0.193298 -0.179715 0.216212 -0.099432
8 -0.120204 -0.109866 0.021026 0.286466 0.099064 -0.035858 0.186319 -0.078412 -0.109642 0.218907 -0.285553 -0.058900 -0.127971 -0.151083 -0.008802 -0.092195 0.170726 0.292262 0.053562 0.165402 -0.180355 0.183515 -0.282967 0.018748 0.162647 -0.058149 -0.086671 0.166975 -0.315633 -0.237078 0.243241 0.051051 -0.033978 0.371452 0.132589 0.180032 -0.012616 0.075398 0.095295 -0.063547 -0.013513 0.134624 -0.063842 -0.280538 -0.262695 -0.067813 -0.040595 0.157234 0.261792 -0.090538 -0.108910 0.213495 0.117555 -0.036850 0.015737 0.241508 0.120184 0.066934 -0.285307 -0.105479 -0.033563 -0.084634 0.120487 -0.105514
35 -0.077285 -0.002728 -0.162408 0.278231 0.086723 -0.077922 0.073741 0.144118 -0.228679 0.123612 -0.021083 0.025974 -0.079228 -0.380136 -0.032394 -0.163250 0.082835 0.248858 -0.131149 0.118998 -0.055899 0.002480 -0.307268 0.077273 0.183902 0.048337 -0.038930 0.224099 -0.284072 -0.102015 0.141018 0.197989 -0.081123 0.281233 0.128122 -0.027870 -0.100545 0.064458 0.290209 -0.133470 -0.118266 0.342233 -0.028024 -0.353220 -0.431710 0.004313 0.171704 0.131571 0.247462 -0.111487 -0.251975 -0.029690 0.031306 -0.156659 0.113546 0.221053 0.115508 0.147192 0.052708 -0.231087 -0.077303 -0.240286 0.131837 -0.144673
50 -0.065560 -0.040496 -0.077786 0.154505 0.086994 -0.304029 0.176581 -0.021324 -0.154038 0.232255 -0.389186 0.072562 -0.075343 -0.425107 -0.026424 -0.166712 -0.037849 0.350367 0.019080 0.277836 -0.349327 0.209158 -0.216676 0.041553 0.131280 -0.020301 0.135026 0.329801 -0.506975 -0.130369 0.222130 0.196114 0.007971 0.374472 -0.033548 0.148786 0.083296 0.060623 0.387916 -0.131395 -0.086645 0.303004 -0.049650 -0.328472 -0.357098 0.208951 -0.107294 0.150433 0.373933 -0.202381 0.003081 0.119955 0.127102 -0.147395 0.088481 0.209832 0.003237 0.189739 -0.136890 -0.131448 -0.202223 -0.270146 0.052125 -0.299212
51 -0.187989 -0.035489 -0.147397 0.142000 -0.060455 -0.248537 0.131861 0.234487 -0.197114 0.261029 -0.329985 0.024809 -0.089001 -0.452296 -0.038324 -0.202718 0.013542 0.267761 0.000649 0.208610 -0.282027 0.257101 -0.458945 0.079701 0.350373 0.080315 0.039601 0.232094 -0.402859 -0.279447 0.140194 0.145805 -0.038187 0.430928 0.039138 0.114235 -0.076570 0.118982 0.456145 -0.109205 -0.135810 0.342943 -0.154622 -0.147389 -0.377833 0.079803 -0.032824 0.131781 0.384755 -0.162634 0.098655 0.118491 0.136341 0.020631 0.120173 0.038857 0.078402 -0.024960 -0.138267 -0.187357 -0.234351 -0.327213 0.207228 -0.204893
366 -0.177439 -0.125122 -0.024759 0.220225 0.181358 -0.199361 0.193651 0.133667 -0.134925 0.084446 -0.144112 -0.005482 -0.063451 -0.302516 -0.127858 -0.212805 0.136281 0.372726 -0.020342 0.073946 0.009625 0.068185 -0.070896 0.056981 0.165738 0.110003 -0.179396 0.238440 -0.305063 -0.186879 0.024451 -0.008909 -0.122768 0.258485 0.053981 0.092175 -0.066346 0.160162 0.298403 -0.076745 -0.120940 0.432804 0.005501 -0.211877 -0.373272 0.024336 0.124954 0.023203 0.216947 -0.232713 -0.039523 0.152114 0.141417 -0.107401 0.094065 0.167275 0.136462 0.112027 -0.019524 -0.207646 -0.100703 -0.278511 0.169063 -0.112404
289 -0.180642 -0.091808 -0.158416 0.275495 0.104037 -0.140772 0.429684 0.187710 -0.260252 0.143203 -0.285889 0.184321 0.032390 -0.414289 -0.087332 -0.132063 0.038345 0.143072 -0.061127 0.150524 -0.117455 0.168550 -0.206702 0.102620 0.181474 0.126356 -0.007859 0.284732 -0.359123 -0.291855 -0.025730 0.127915 -0.064029 0.430100 0.069314 0.028845 -0.170067 0.082043 0.301932 -0.161309 -0.065276 0.265101 -0.027234 -0.289409 -0.562736 0.287144 -0.019105 -0.002495 0.339171 -0.283905 -0.106244 0.121745 0.119528 -0.105762 0.193318 0.055570 0.110696 0.118033 -0.029342 -0.142653 -0.294047 -0.253863 0.183197 -0.258923
95 -0.128394 -0.057161 -0.102671 0.299305 0.078726 -0.145184 0.014017 -0.043826 -0.101565 0.075989 -0.320587 -0.015504 -0.081071 -0.332959 -0.053948 -0.160745 0.001704 0.244994 -0.073671 0.101975 -0.301574 0.173848 -0.317617 -0.024981 0.165895 -0.062257 -0.028547 0.201247 -0.241358 -0.213280 0.094786 0.089964 -0.044918 0.380347 0.141410 0.203817 -0.088931 0.213726 0.117723 -0.074939 -0.108720 0.148982 -0.073246 -0.311120 -0.171002 -0.002793 -0.049924 0.219816 0.292782 -0.131080 -0.178983 0.091580 0.193419 -0.002878 0.044872 0.168871 0.117037 0.163246 -0.154591 -0.067229 -0.088869 -0.269084 0.123362 0.031808
286 -0.173785 -0.184417 -0.041144 0.150255 0.002927 -0.244549 0.224624 0.290581 -0.179989 0.144917 -0.244207 0.113932 -0.063622 -0.404540 -0.102822 -0.105955 0.016893 0.270295 -0.003909 0.170880 -0.128871 0.305507 -0.311430 0.066153 0.129832 0.122796 0.024647 0.304088 -0.397389 -0.241725 0.042174 0.073732 -0.106790 0.377511 0.058923 0.035117 -0.273299 0.068952 0.404842 -0.247671 -0.024988 0.324492 -0.073704 -0.276169 -0.554089 0.107242 0.039385 0.075530 0.304071 -0.148243 -0.036596 0.062603 0.026767 -0.154153 0.096468 0.116862 0.201930 0.098993 0.005222 -0.212812 -0.192696 -0.285160 0.195929 -0.275275
419 -0.122905 -0.123090 -0.089354 0.325552 0.104861 -0.183503 0.338702 0.143917 -0.204459 0.205840 -0.198072 0.023041 0.012142 -0.467771 0.008962 -0.141467 0.017025 0.222077 0.011487 0.183328 -0.078025 0.195150 -0.243969 0.040078 0.085473 -0.048735 0.072886 0.308038 -0.449017 -0.181777 0.147398 0.030635 -0.134732 0.416216 -0.002037 0.153848 -0.265769 0.005183 0.328012 -0.289652 -0.094784 0.362104 -0.012238 -0.314140 -0.445410 0.341506 0.081787 0.076212 0.338780 -0.230716 -0.026186 0.062241 0.038567 -0.150818 0.212127 0.123399 0.134565 -0.063702 0.056337 -0.083755 -0.146543 -0.292197 0.143876 -0.206426
418 -0.082254 -0.091694 -0.199744 0.254643 0.106354 -0.251027 0.275779 0.167354 -0.251945 0.033225 -0.188900 0.113661 -0.042379 -0.430193 -0.088799 -0.201111 0.106504 0.199067 -0.030425 0.198795 -0.157657 0.312703 -0.270964 0.151468 0.222986 -0.001389 -0.027657 0.269251 -0.490983 -0.182931 0.128816 0.180223 -0.037740 0.337718 0.058665 0.073450 -0.269357 0.035740 0.337253 -0.259863 -0.070040 0.419065 0.069754 -0.244736 -0.444046 0.228834 -0.089745 0.064519 0.410924 -0.169678 0.000100 0.068244 0.192261 -0.240269 0.176375 0.099810 0.137740 0.030224 0.061287 -0.120918 -0.239035 -0.192451 0.034100 -0.157974
353 -0.096337 -0.025623 -0.105078 0.161006 0.226125 -0.070545 0.157952 0.136725 -0.207138 0.020777 -0.081547 0.016067 -0.096617 -0.187128 0.029042 -0.247828 0.173236 0.244908 0.022209 0.168233 0.109214 0.143276 -0.195295 0.200092 0.152117 -0.004241 -0.084001 0.131227 -0.094201 -0.243238 0.281414 -0.008382 -0.079511 0.249878 0.157364 0.059555 -0.039243 0.072366 0.186602 0.133802 -0.039594 0.221862 -0.075006 -0.268739 -0.326529 0.137974 0.164891 0.148014 0.196814 -0.050921 -0.236485 -0.023753 0.065665 0.036214 0.070876 0.142268 0.176255 0.137938 -0.051385 -0.025378 -0.018207 -0.100598 0.201174 0.120740
298 -0.106487 -0.195337 0.004746 0.180850 0.057147 -0.017033 0.220594 0.055742 -0.211265 -0.012956 -0.150858 -0.018138 -0.036737 -0.239720 0.027411 -0.211403 0.192219 0.229465 0.056441 0.168078 -0.094939 0.028379 -0.080505 0.290203 0.156499 0.077338 -0.038116 0.169928 -0.251633 -0.135414 0.169558 -0.051283 -0.102613 0.284103 0.139633 0.019391 -0.041522 0.190711 0.143027 -0.050951 -0.047600 0.325012 0.023172 -0.286542 -0.266013 0.071792 0.155594 0.188202 0.282000 -0.142770 -0.073458 -0.006932 0.028603 0.162112 0.047138 0.316117 0.248541 -0.003246 0.019386 -0.084202 -0.136097 -0.183366 0.084406 -0.040922
53 -0.179027 -0.078574 -0.102634 0.141422 -0.010273 -0.151130 0.151173 0.126542 -0.238100 0.227507 -0.419341 0.052708 -0.041442 -0.539152 -0.109867 -0.135317 0.062935 0.232320 0.004487 0.152996 -0.280719 0.151535 -0.301061 0.060957 0.110639 -0.044792 0.079685 0.201372 -0.399601 -0.236699 0.221980 0.204416 -0.002364 0.518869 0.025505 0.107340 -0.014366 0.022296 0.499708 -0.163025 0.009994 0.266560 -0.018756 -0.249156 -0.369543 0.208803 0.005591 -0.003979 0.396793 -0.141929 0.124079 0.127672 0.104983 -0.036351 -0.004018 0.227559 0.110925 0.144913 -0.240701 -0.015968 -0.333164 -0.343559 0.205265 -0.111307
292 -0.163035 -0.081794 -0.128913 0.207597 0.155123 -0.151716 0.295953 0.049763 -0.151963 0.009387 -0.221526 0.030104 0.014741 -0.587659 -0.037891 -0.075935 0.063179 0.139927 0.049501 0.136646 -0.090051 0.171844 -0.272564 0.181931 0.163718 -0.108601 0.026454 0.276069 -0.264664 -0.185964 -0.001409 0.218279 0.116900 0.523863 0.022039 0.068980 -0.219938 0.066862 0.249211 -0.342678 -0.069697 0.397331 -0.048572 -0.265677 -0.505663 0.210286 0.082767 0.015428 0.375579 -0.189556 -0.172949 0.069973 0.021748 -0.043485 0.144431 0.188673 0.069241 0.079470 -0.046606 -0.119114 -0.145803 -0.306402 0.069412 -0.185017
185 -0.226064 -0.024143 -0.163586 0.056669 0.033389 -0.289863 0.128569 0.194230 -0.231565 0.251209 -0.388689 0.059231 -0.061348 -0.507008 -0.091198 -0.173921 0.001423 0.250263 0.019679 0.337088 -0.313310 0.216564 -0.379949 -0.005605 0.258950 -0.039066 0.008837 0.260480 -0.419178 -0.233889 0.066167 0.167389 0.027584 0.495655 0.040010 0.060926 0.039717 0.128023 0.464461 -0.173897 -0.109745 0.265877 -0.066286 -0.210271 -0.487269 0.210177 -0.068844 0.085749 0.368695 -0.204484 0.122951 0.064512 0.069059 0.091284 0.037325 0.094277 0.063031 0.146022 -0.120296 -0.144308 -0.168210 -0.334001 0.196963 -0.185018
291 -0.281561 0.018703 -0.168617 0.225811 0.139164 -0.202632 0.219621 0.279619 -0.317732 0.159357 -0.294463 0.063963 0.003261 -0.439543 -0.068206 -0.078966 0.111811 0.203772 0.034872 0.140514 -0.138014 0.281192 -0.325126 0.200586 0.127406 -0.035260 -0.052802 0.368879 -0.325553 -0.194127 -0.075777 0.229810 -0.065966 0.356738 -0.013991 0.067875 -0.155950 0.171866 0.308644 -0.237942 -0.076258 0.400870 -0.081560 -0.234691 -0.482865 0.250248 0.053245 0.193450 0.293132 -0.188591 -0.033787 0.020173 -0.026896 -0.190492 0.076959 0.198801 0.184443 0.063051 0.087070 -0.138285 -0.210773 -0.386494 0.198607 -0.142335
61 -0.148916 -0.047547 -0.016146 0.283106 0.144326 -0.099703 0.129009 0.034624 -0.232453 0.024311 -0.103569 -0.041046 -0.009596 -0.199770 0.081200 -0.264418 0.125465 0.234749 -0.103801 0.215213 0.106341 0.188061 -0.253112 0.227008 0.166719 0.117653 -0.106008 -0.032231 0.026394 -0.208136 0.094416 -0.028219 -0.015388 0.272934 -0.017922 0.052388 -0.079774 -0.027493 0.071228 0.023120 -0.113650 0.303766 -0.073281 -0.180259 -0.266358 0.020769 0.126173 0.059065 0.357607 -0.150757 -0.136865 -0.053301 0.089961 0.109488 0.000368 0.177163 0.255838 0.163385 -0.177075 -0.017022 -0.040285 -0.123831 0.166055 0.010837
182 -0.041982 -0.041523 -0.126001 0.250187 0.176315 -0.025375 0.190852 0.026206 -0.147324 0.073234 -0.167820 0.148381 -0.033425 -0.281848 -0.103575 -0.202562 0.215986 0.214304 0.022784 0.109849 -0.125942 0.226570 -0.274037 0.191432 0.248508 0.006793 0.053713 0.351892 -0.298661 -0.225787 0.073753 0.115391 -0.029412 0.334151 0.083679 -0.019566 -0.309477 0.141909 0.294406 -0.282792 0.084643 0.331104 -0.056854 -0.162205 -0.540891 0.196075 0.002572 -0.027455 0.284104 -0.182707 -0.106046 0.073881 0.133208 -0.086033 0.158074 0.150860 0.207519 0.072474 -0.112873 -0.179346 -0.276993 -0.282954 0.121197 -0.058012
296 -0.131270 -0.171809 0.011408 0.222092 0.154743 -0.042448 0.225311 0.095523 -0.160612 0.035695 -0.099849 -0.019759 -0.118061 -0.175160 0.057009 -0.223878 -0.020161 0.299242 0.071547 0.239592 -0.053731 0.039553 -0.148493 0.121419 0.099533 0.155736 -0.070908 0.217127 -0.241704 -0.166385 0.142909 0.058677 -0.038702 0.150095 0.116577 0.048399 0.043365 0.108577 0.177751 -0.017235 -0.127492 0.287406 -0.053553 -0.295142 -0.471825 0.090065 0.164523 -0.005014 0.245504 -0.106882 -0.248364 0.058816 0.198924 0.037927 0.014051 0.158752 0.052832 0.002551 -0.004187 -0.094842 -0.226111 -0.296523 0.141695 -0.053315
155 -0.190292 -0.096524 0.034191 0.170212 -0.127332 0.284662 -0.127368 0.044784 -0.221793 -0.223121 -0.008738 0.052752 -0.131297 0.024089 0.036513 -0.276576 0.259447 0.291885 -0.027814 0.246218 -0.013145 0.119469 0.082781 0.013920 -0.004349 0.128831 -0.049373 -0.031750 -0.116943 -0.186774 0.153014 -0.082749 0.027386 0.345281 0.008326 0.231400 -0.109175 0.124227 -0.056049 0.259602 -0.183371 0.479297 -0.031906 -0.250192 -0.347681 0.102325 -0.172400 0.021787 0.220641 -0.076908 -0.291091 -0.054409 -0.039402 0.132560 -0.084623 0.218907 0.098003 0.232541 -0.120330 0.005520 0.021534 -0.087550 -0.098627 0.081783
285 -0.134950 -0.036647 -0.094428 0.180837 0.178017 -0.220986 0.330160 0.167492 -0.246523 0.088010 -0.107719 0.043211 0.017830 -0.416931 -0.202931 -0.020401 0.143611 0.122010 0.039228 0.219229 -0.120267 0.155246 -0.211743 0.112157 0.131477 0.089214 -0.025241 0.235371 -0.358226 -0.154055 0.055655 0.085000 -0.067641 0.388936 -0.042252 0.086435 -0.038233 0.150083 0.393677 -0.281926 -0.044544 0.458157 -0.034166 -0.254332 -0.550546 0.154225 0.023892 0.017367 0.519560 -0.292446 -0.031616 0.028985 0.243837 -0.099336 0.109962 0.183529 0.153316 0.042107 -0.001479 -0.016720 -0.265896 -0.331151 0.118681 -0.246863
471 -0.181531 -0.053579 0.054088 0.021884 -0.012987 0.224396 -0.050164 0.084527 -0.172514 -0.092447 0.033169 0.096378 -0.159260 0.059004 0.125284 -0.442150 0.159966 0.166523 0.042352 0.196361 0.191170 0.053744 0.082879 0.014452 -0.106783 0.159672 -0.028470 -0.071184 -0.154293 -0.186532 0.251892 -0.106457 0.063268 0.248806 0.012128 0.327000 -0.065036 0.081757 0.034900 0.344538 -0.219602 0.337198 -0.156494 -0.204312 -0.433256 0.161825 -0.086107 0.154989 0.245091 0.013588 -0.249588 0.114961 -0.000628 0.010083 0.049599 0.226543 0.205879 0.341146 -0.167104 -0.021885 0.084281 -0.270058 0.014772 0.183753
288 -0.218219 -0.249585 -0.085404 0.250312 0.054729 -0.250244 0.367954 0.124302 -0.238837 0.163756 -0.198067 -0.038185 0.084332 -0.574973 -0.109826 -0.125137 0.147808 0.204844 0.089602 0.129665 -0.020854 0.211415 -0.217476 0.044544 0.140626 -0.002059 -0.018316 0.258259 -0.296054 -0.142868 -0.006114 0.306076 -0.069784 0.385043 0.033495 0.067673 -0.214580 0.014203 0.277726 -0.209109 -0.101716 0.407681 -0.133889 -0.174231 -0.543224 0.125039 0.007100 0.121133 0.366933 -0.198862 -0.044987 0.108030 0.103305 -0.071264 0.156489 0.221277 0.108451 -0.007414 -0.064560 -0.053781 -0.271875 -0.392812 0.152580 -0.157509
403 -0.235191 0.061477 0.075138 0.176133 0.173615 -0.117951 0.087256 0.014506 -0.188207 -0.167937 -0.085467 0.027835 -0.058939 -0.203772 -0.020146 -0.251951 0.182770 0.293851 -0.085685 0.130953 -0.002306 0.139273 -0.093246 0.093382 0.137064 -0.051822 -0.021156 -0.035182 -0.249863 -0.232700 0.144997 -0.030266 -0.099935 0.139026 0.127308 0.087064 -0.031389 0.045425 0.005851 0.165779 -0.108710 0.213273 0.030779 -0.219097 -0.437483 0.055441 0.180903 -0.010548 0.164415 -0.227158 -0.177630 -0.122247 0.089629 0.109577 0.054915 0.352751 0.172598 0.147638 -0.141963 0.052342 -0.067003 -0.208736 0.047286 -0.068505
86 -0.025715 -0.009390 0.006586 0.260614 0.018121 -0.148584 0.131018 0.100387 -0.151370 0.069714 -0.325287 0.074278 -0.127727 -0.293533 -0.172462 -0.163714 0.027130 0.304839 -0.034135 0.024430 -0.295387 0.211305 -0.333788 0.001943 0.090309 -0.043544 -0.052894 0.276059 -0.387411 -0.252154 0.101839 0.227904 -0.120249 0.561552 0.091033 0.226327 -0.038207 0.101400 0.177222 -0.113894 -0.030396 0.076591 0.033769 -0.254190 -0.238110 0.245763 -0.120119 0.177139 0.374961 -0.154395 -0.080608 0.177810 0.187227 -0.099155 -0.044294 0.243981 0.106282 0.025489 -0.277664 -0.113280 -0.233165 -0.280299 0.185638 -0.036792
5 -0.133935 -0.039226 0.122191 0.006624 -0.004741 0.336623 -0.114751 0.074312 -0.131465 -0.099283 -0.010850 0.042104 -0.157953 -0.053626 -0.008364 -0.391065 0.140106 0.297742 0.080018 0.359659 -0.001638 0.175901 0.065428 0.043211 -0.025163 0.163154 -0.007545 -0.068001 0.009320 -0.213235 0.264168 -0.065228 0.009049 0.273666 0.024924 0.254314 -0.068187 0.086168 -0.101840 0.179236 -0.200066 0.406375 0.042035 -0.232880 -0.366580 0.013402 -0.017011 0.140393 0.204305 -0.181574 -0.246230 0.141205 -0.069250 0.071673 -0.029472 0.110394 0.193969 0.210404 -0.099842 0.019232 0.005624 -0.220559 0.018779 0.246481
376 -0.102297 -0.024921 -0.025963 0.159933 0.127913 -0.012736 0.105450 -0.043382 -0.170312 -0.030518 -0.085331 0.104847 -0.090252 -0.170331 0.042751 -0.184009 0.137850 0.195403 0.093055 0.302169 0.069285 0.090299 0.001671 0.385090 0.199858 0.095892 -0.205289 0.100079 -0.130710 -0.126428 0.174345 -0.024360 -0.004506 0.255071 0.052905 0.155449 -0.128309 0.002902 0.150928 0.148112 -0.144730 0.157381 -0.012793 -0.288510 -0.237948 0.089841 0.149168 0.138203 0.222154 -0.156802 -0.212891 -0.111399 -0.037769 0.166917 0.229157 0.200123 0.125225 0.345111 -0.198833 -0.038312 0.005750 -0.152474 0.007972 0.064672
499 -0.193458 0.009913 0.075423 0.105001 -0.012992 0.320522 -0.127977 -0.026440 -0.195277 -0.102809 0.030597 0.128329 -0.253826 -0.031431 0.082434 -0.354171 0.113601 0.232962 0.091106 0.307025 -0.058029 0.217329 -0.147289 0.076526 -0.040542 0.049935 -0.182200 0.051918 -0.084261 -0.176365 0.265123 -0.027583 0.036120 0.165996 -0.004558 0.169978 -0.059264 0.077051 -0.067748 0.204183 -0.118778 0.393449 0.109632 -0.243023 -0.378440 0.072745 -0.051378 0.094204 0.315077 -0.110727 -0.271396 0.075515 -0.134131 0.043562 -0.005593 0.176776 0.122359 0.270461 -0.048674 0.054204 0.028191 -0.006424 0.010054 0.133472
297 -0.090237 -0.097969 -0.046083 0.281537 0.066567 -0.036574 0.233363 -0.016349 -0.136504 0.056004 -0.065687 0.020025 -0.157393 -0.112354 -0.038453 -0.155372 0.248747 0.268824 -0.097919 0.138044 -0.108106 0.141047 -0.121292 0.393199 0.105836 0.115582 -0.127102 0.085700 -0.186401 -0.245246 0.036383 0.114365 0.029158 0.197869 0.175023 0.095870 -0.085910 0.105904 0.122109 -0.020452 -0.055564 0.227327 -0.187698 -0.262481 -0.415305 0.139451 0.061047 0.060962 0.425625 -0.129836 -0.048457 -0.009668 0.042308 0.217259 0.035411 0.220144 0.119867 0.036243 -0.000701 -0.041168 -0.070820 -0.142097 0.137044 -0.065597
238 -0.189884 -0.019645 0.171529 0.144964 0.038379 0.208553 -0.059161 0.115571 -0.192287 -0.121930 -0.047351 0.050584 -0.161159 0.076402 0.030190 -0.377239 0.207745 0.274847 0.165879 0.234833 0.103208 0.126884 0.027917 -0.072722 -0.039448 0.139592 -0.072337 -0.085473 -0.203963 -0.238678 0.131725 -0.028067 0.064597 0.217521 -0.089556 0.296113 -0.058817 0.188399 -0.039201 0.260985 -0.348982 0.344168 0.047585 -0.202803 -0.391939 0.248785 -0.001299 0.198636 0.258522 -0.033325 -0.202359 0.037413 -0.146793 0.061523 0.045068 0.203889 0.321263 0.228409 -0.085445 0.140274 0.126523 -0.129238 -0.078698 0.185522
236 -0.343062 -0.039420 -0.031230 -0.026541 0.018112 0.288681 -0.024792 0.015549 -0.207135 -0.070733 -0.060968 0.050692 -0.259981 0.067015 0.129066 -0.324150 0.048284 0.229089 0.023075 0.178226 0.109058 -0.027980 0.007249 -0.089799 -0.073795 0.092733 -0.105809 0.005918 -0.130860 -0.422894 0.158906 -0.155770 -0.012448 0.182860 -0.056844 0.166038 -0.091368 0.118743 -0.103937 0.187503 -0.256582 0.488907 -0.042379 -0.179366 -0.487358 0.039184 -0.041400 0.078692 0.365092 -0.093006 -0.312073 -0.105555 -0.022168 0.044805 0.005548 0.225548 0.097838 0.314278 -0.219292 0.069099 0.160414 -0.221452 -0.177873 0.260608
240 -0.186645 -0.085935 -0.012882 0.305714 0.142108 0.005375 0.007512 0.060086 -0.120190 0.144543 -0.302516 0.067306 -0.091253 -0.294921 0.114160 -0.139527 0.102650 0.312480 0.047985 0.180973 -0.308344 0.042951 -0.218717 -0.021804 0.162145 -0.082722 -0.074613 0.087126 -0.133775 -0.172550 0.241976 0.038601 -0.209055 0.250828 0.203875 0.195589 -0.039485 0.066753 0.041288 0.072143 -0.097172 0.068566 0.036538 -0.228348 -0.327115 0.006727 -0.048445 0.141861 0.323648 -0.094760 -0.191726 0.080191 0.258181 -0.062099 0.006980 0.112898 0.140823 0.096498 -0.106354 -0.076786 -0.006506 -0.247568 0.022007 0.006023
115 -0.303931 -0.105792 -0.250918 0.281908 0.009484 -0.215144 0.257728 0.170946 -0.185543 0.156436 -0.269699 -0.034370 0.003589 -0.434849 -0.030766 -0.134880 0.070549 0.179012 -0.108399 0.170262 -0.163757 0.218821 -0.234898 0.183122 0.129157 -0.099890 -0.066173 0.280509 -0.325274 -0.021161 0.142139 0.052134 -0.126391 0.483145 0.080496 0.000703 -0.182941 0.086751 0.387944 -0.123011 0.003762 0.396185 0.012476 -0.229540 -0.578390 0.214265 0.065675 0.123081 0.287283 -0.322606 -0.053939 0.034317 0.080482 -0.217216 0.223823 0.136764 0.055614 0.056549 -0.015917 -0.159517 -0.314140 -0.303603 0.114191 -0.174728
352 -0.143938 -0.055058 -0.060864 0.132828 0.214225 -0.107241 0.175586 0.097626 -0.268671 -0.067960 0.012671 0.126747 -0.011691 -0.244836 0.101864 -0.210117 0.250063 0.221347 -0.021892 0.215755 0.057072 0.148200 -0.093821 0.142189 0.080929 -0.006668 -0.136467 -0.021318 -0.070289 -0.187399 0.214843 0.034676 0.061884 0.264567 0.106233 0.076589 -0.046389 0.166654 0.256408 0.042018 0.003211 0.282536 0.035886 -0.265136 -0.319149 0.029500 0.107146 0.041226 0.151664 -0.142157 -0.274291 -0.033805 0.122749 0.072432 0.019340 0.230232 0.145992 0.221445 -0.138575 0.009590 -0.044594 -0.144448 0.143335 0.117914
404 -0.270896 -0.133674 -0.097460 0.278414 0.022232 -0.027573 0.051269 0.038308 -0.199245 -0.023689 -0.116539 0.087182 -0.169884 -0.153987 -0.003448 -0.333420 0.128850 0.282614 -0.054478 0.114670 0.021645 0.113325 -0.265190 0.175375 0.137852 -0.130965 -0.059646 0.037128 -0.217984 -0.010997 0.163251 -0.078164 -0.037930 0.156884 0.082520 0.015763 -0.057383 0.124135 0.075894 -0.040389 -0.069807 0.313502 -0.012827 -0.267421 -0.343963 0.047047 0.136700 -0.043414 0.170222 -0.191561 -0.167690 0.039867 0.106923 0.080292 0.070862 0.316803 0.187409 0.251482 -0.023471 -0.013850 0.154974 -0.094143 0.060869 -0.048427
239 -0.202667 -0.122899 0.138941 0.191298 0.063584 0.239513 0.004919 0.049520 -0.157273 -0.052985 0.120294 0.074312 -0.253616 0.016946 -0.054597 -0.346682 0.230971 0.285774 -0.040096 0.216415 0.138357 0.116189 -0.108114 0.038480 -0.053602 0.106376 -0.091017 -0.034443 -0.024060 -0.282844 0.214330 -0.127724 0.122002 0.153933 -0.064901 0.284942 0.021280 0.116247 -0.101877 0.226589 -0.248319 0.366545 0.083147 -0.128392 -0.523984 0.145859 -0.047020 0.165493 0.275728 -0.191906 -0.174450 0.061277 -0.194277 -0.104741 0.083751 0.164998 0.114669 0.351567 -0.204739 0.204229 0.182676 -0.238378 -0.131835 0.339990
473 -0.163036 -0.137593 0.106656 0.107737 0.044197 0.176343 -0.010139 0.092445 -0.333098 -0.120522 0.026514 0.116414 -0.200894 0.033570 0.145615 -0.389324 0.193225 0.211550 0.060484 0.264224 0.075216 -0.022088 0.020611 0.015489 0.015686 0.179882 -0.092985 0.030541 -0.105642 -0.275626 0.289990 -0.048257 0.027642 0.283972 -0.076463 0.219209 -0.125498 0.142133 -0.101960 0.246274 -0.302390 0.314765 -0.027812 -0.251283 -0.370553 0.045295 -0.053205 0.088158 0.221828 -0.101049 -0.268511 -0.035089 -0.132978 -0.058962 -0.007161 0.152360 0.143352 0.242688 -0.097131 0.050475 0.119866 -0.151578 -0.092145 0.320859
440 -0.147331 -0.152670 0.098453 0.092455 0.127111 0.140180 -0.041885 -0.043952 -0.260444 -0.062676 -0.058985 0.047815 -0.066406 -0.212041 0.101446 -0.391044 0.192092 0.101018 0.010604 0.337901 -0.036402 0.099219 -0.079837 0.024768 0.128744 0.032324 -0.131916 0.261495 -0.119409 -0.062177 0.293069 0.014720 -0.031641 0.398561 0.126404 0.278963 -0.060193 0.152379 0.049977 0.158568 -0.135932 0.186540 -0.012577 -0.153632 -0.102423 0.085123 0.005868 0.118959 0.172811 -0.097287 -0.308879 0.001662 0.052382 0.036384 -0.056954 0.045050 0.210898 0.238489 -0.019917 0.051507 0.083543 -0.192561 -0.007146 -0.100990
3 -0.277486 -0.143116 -0.006316 0.114924 -0.094653 0.154034 -0.120947 0.014179 -0.198416 -0.072781 -0.088590 0.117544 -0.278366 -0.048267 0.084275 -0.289487 0.148218 0.343738 0.092976 0.168698 0.088029 0.050779 0.062669 0.013668 0.022506 0.078494 0.042791 -0.096338 -0.152693 -0.252446 0.334004 -0.040029 -0.012660 0.265363 0.004307 0.270323 -0.064727 0.028098 -0.166052 0.229022 -0.064669 0.485674 -0.054758 -0.199512 -0.443087 -0.090379 -0.011189 0.118795 0.316899 -0.012185 -0.236562 -0.021010 -0.007993 0.125761 -0.064028 0.121127 0.083504 0.232919 -0.156995 0.040416 0.155656 -0.049565 -0.120335 0.194865
188 -0.069863 -0.097602 -0.187811 0.121087 -0.029012 -0.206284 0.293954 0.136473 -0.257877 0.187383 -0.373464 0.051779 0.004842 -0.436290 -0.023136 -0.130972 0.035864 0.205591 -0.036011 0.246518 -0.381279 0.165699 -0.352859 0.116900 0.212153 -0.012645 0.063864 0.254897 -0.351286 -0.183436 0.042408 0.246909 -0.046315 0.482529 0.019830 0.272935 -0.038510 0.073877 0.419305 -0.007198 -0.098540 0.390050 -0.075846 -0.323740 -0.366087 0.147760 0.021014 0.159831 0.378193 -0.291923 0.130007 0.102606 0.102062 -0.039844 0.094087 0.063184 0.123254 0.009346 -0.235072 -0.183988 -0.212662 -0.330231 0.149979 -0.183947
186 -0.048155 -0.034133 -0.113064 0.098333 -0.011346 -0.221935 0.276235 0.254708 -0.230872 0.192278 -0.335650 0.081800 -0.024281 -0.353058 -0.064792 -0.124879 0.098657 0.186116 0.037152 0.242688 -0.310184 0.208821 -0.446421 0.015066 0.247505 -0.068442 0.109912 0.235663 -0.465806 -0.183118 0.200284 0.152933 0.017196 0.443879 0.047342 0.096679 -0.009967 0.076910 0.496927 -0.187234 -0.040268 0.276155 -0.003733 -0.281514 -0.402158 0.146096 -0.099768 0.136583 0.431716 -0.176367 -0.024473 0.121221 0.082011 -0.096385 0.031341 0.211481 0.100533 0.122177 -0.165053 -0.118090 -0.264226 -0.361817 0.153937 -0.217367
393 -0.118191 -0.080149 -0.004135 0.142562 0.224518 -0.021960 0.136265 0.026346 -0.168527 0.087122 -0.085126 0.104279 -0.008251 -0.269365 -0.114916 -0.242133 0.235700 0.312601 -0.047308 0.180336 -0.180540 0.127574 -0.082641 0.070053 0.039080 0.071378 -0.058449 -0.059352 -0.220609 -0.123430 0.192971 0.001749 -0.093190 0.256189 0.192492 0.066575 -0.026206 0.073833 0.150448 -0.128071 -0.123593 0.241845 0.031675 -0.259977 -0.471415 0.044864 0.182082 0.081355 0.168805 -0.125126 -0.174659 -0.060720 0.069164 0.057114 0.102100 0.298209 0.219196 -0.009770 -0.101440 -0.059536 0.042461 -0.177125 0.154030 -0.021475
405 -0.108977 -0.117276 -0.027037 0.176342 0.100160 -0.007183 0.164486 0.062516 -0.224394 0.053598 -0.079460 0.085459 0.046846 -0.308472 0.095291 -0.347537 0.065664 0.198425 0.015726 0.140539 0.013038 0.109838 -0.191553 0.179913 0.022999 0.083504 -0.074413 0.061132 -0.175364 -0.126376 0.201223 0.030624 0.008069 0.255993 0.075823 0.124150 -0.127907 0.118112 0.093886 0.044739 -0.012631 0.251383 0.101278 -0.237017 -0.330471 -0.022224 0.010955 -0.055678 0.225299 -0.265738 -0.252091 -0.088699 0.074713 0.124163 0.037687 0.204298 0.083167 0.207804 -0.213285 0.049217 0.128878 -0.132115 0.061977 0.058902
229 -0.231661 -0.041779 0.092729 0.087820 -0.002691 0.227945 -0.099639 -0.101657 -0.267127 -0.029393 -0.063463 0.143216 -0.286559 0.060116 0.122016 -0.387641 0.249089 0.182104 0.112888 0.171880 0.064474 0.041780 0.066910 0.053794 0.001450 0.251431 -0.170885 -0.027669 -0.114703 -0.224647 0.166430 -0.137295 0.059720 0.236813 0.002071 0.146902 0.068705 0.060755 -0.051206 0.269038 -0.250366 0.362998 0.014994 -0.339210 -0.530896 0.129505 -0.067503 0.150802 0.233578 -0.074593 -0.253619 0.029904 -0.019207 -0.051816 -0.005053 0.119833 0.155674 0.328807 -0.069061 0.088203 0.123198 -0.175187 -0.074916 0.194585
390 -0.107068 -0.133704 -0.075485 0.266925 0.025066 -0.018493 0.304040 0.016238 -0.178847 0.012091 -0.001041 0.037498 -0.231699 -0.154606 -0.057940 -0.310830 0.221835 0.235808 -0.139148 0.229902 -0.062458 0.139825 -0.055854 0.116325 0.129395 0.109215 -0.106369 0.153163 -0.193767 -0.167377 0.174476 0.024180 -0.033040 0.195869 0.152416 0.078999 0.003586 0.102003 0.225987 0.017240 -0.042736 0.238319 0.044034 -0.282376 -0.372402 0.090095 0.091046 -0.000756 0.271147 -0.191246 -0.121847 0.014524 0.159214 0.151996 0.096123 0.126215 0.148312 0.042567 -0.042279 -0.237178 0.019254 -0.088309 0.223207 -0.063658
116 -0.189248 -0.115063 -0.084846 0.155662 0.008729 -0.198517 0.300582 0.091498 -0.269878 0.149266 -0.291842 -0.119696 0.026967 -0.393551 -0.062858 -0.153363 0.125946 0.188172 -0.027711 0.214347 -0.186113 0.193353 -0.402926 0.212966 0.125323 0.033362 0.053529 0.424836 -0.332886 -0.176430 0.115552 0.066570 -0.111608 0.369503 0.053118 -0.074580 -0.165546 0.224481 0.467447 -0.149629 -0.097181 0.353303 -0.039428 -0.198726 -0.618167 0.187315 0.193219 0.263057 0.291748 -0.260673 -0.022638 -0.018885 0.136291 -0.162169 0.130704 0.094434 0.002663 0.115881 0.084064 -0.220948 -0.237884 -0.309170 0.155340 -0.243633
391 -0.096574 -0.171167 0.104011 0.212424 0.143800 -0.024857 0.105389 0.059795 -0.211730 -0.032069 -0.107814 0.043533 -0.029152 -0.227800 -0.001843 -0.299856 0.118134 0.313193 -0.033251 0.142792 -0.054812 0.083028 -0.105054 0.163093 0.015268 0.186329 -0.147562 0.070680 -0.162973 -0.140864 0.081674 0.034990 0.016205 0.318526 0.145931 0.108126 -0.133793 0.162769 0.221468 -0.064873 -0.112263 0.263078 0.034794 -0.213370 -0.388186 -0.044160 0.160539 0.022370 0.279125 -0.143420 -0.029339 -0.022384 0.062212 0.060336 0.016427 0.322145 0.114392 0.089854 -0.009082 -0.174302 -0.047671 -0.159189 0.071440 -0.105554
189 -0.112633 0.019052 -0.183969 0.172519 0.044282 -0.319609 0.207929 0.268863 -0.255488 0.078878 -0.519872 0.099743 -0.133427 -0.478917 -0.020299 -0.246195 0.083310 0.307217 0.069092 0.173133 -0.270614 0.242611 -0.358983 0.115879 0.202409 -0.156190 0.059067 0.349684 -0.371571 -0.261225 0.138975 0.174733 -0.015442 0.436396 -0.012908 0.171468 0.012212 0.102052 0.327898 -0.044846 -0.070642 0.301197 0.010980 -0.205023 -0.471060 0.161983 -0.037043 0.148373 0.287019 -0.291984 0.097145 0.160435 0.130922 -0.076004 0.103757 -0.012123 0.111270 0.066862 -0.177491 -0.127596 -0.275279 -0.275120 0.166955 -0.235525
392 -0.067457 -0.086342 -0.027041 0.280125 0.158878 0.004926 0.239865 0.117996 -0.192505 0.042822 -0.074817 -0.011755 -0.107439 -0.272925 0.055238 -0.152171 0.170765 0.253909 -0.057299 0.171278 -0.001132 0.063443 -0.125330 0.100299 0.176867 0.016489 -0.078494 0.001654 -0.306444 -0.152104 0.162045 -0.049282 -0.058856 0.279143 0.129994 0.164678 0.031684 0.072046 0.161730 -0.002277 -0.063847 0.298544 -0.123232 -0.292460 -0.261329 0.066373 0.087844 0.035298 0.224004 -0.243270 -0.190311 -0.047195 -0.058794 0.178811 0.164028 0.172322 0.074535 0.127732 0.011951 -0.162180 -0.016277 -0.262036 0.063358 -0.044216
351 -0.159741 -0.061178 0.070054 0.281442 0.144937 -0.089239 0.047176 0.006648 -0.188607 -0.086894 -0.055067 0.007475 -0.073011 -0.205738 0.076967 -0.249920 0.159523 0.138532 0.041980 0.158452 0.003340 0.165798 -0.293856 0.267772 0.160564 -0.028962 -0.193401 0.085897 -0.176301 -0.130757 0.107344 0.061381 -0.034889 0.281115 0.048109 0.025908 -0.034298 0.107115 0.101193 -0.008242 -0.067503 0.330864 0.084104 -0.238070 -0.429786 0.015950 0.123441 0.010694 0.173467 -0.144628 -0.135336 0.029673 -0.015539 0.115137 0.027880 0.177242 0.159748 0.142600 -0.174853 -0.058379 0.140609 -0.144132 0.107726 0.089139
154 -0.211363 -0.071749 0.077012 0.095559 -0.024490 0.276966 -0.042526 0.069952 -0.255619 -0.006280 -0.099550 0.121808 -0.170748 -0.000018 0.007766 -0.298794 0.172354 0.242315 0.003478 0.245579 0.054188 0.115051 0.024127 0.207709 0.034333 0.116143 -0.136134 -0.076530 -0.116713 -0.274995 0.182222 -0.012331 0.060567 0.246588 -0.077250 0.287020 -0.039283 0.108234 -0.134591 0.192011 -0.173450 0.414288 -0.054361 -0.193743 -0.327059 0.089785 -0.117620 0.125384 0.325509 -0.139038 -0.181807 0.158191 -0.060307 0.075370 -0.065861 0.193561 0.146578 0.263921 -0.121100 0.007874 0.267111 -0.030922 -0.018384 0.205878
4 -0.220028 0.012926 0.049117 0.170109 -0.061090 0.247860 -0.136046 -0.079546 -0.174254 -0.057839 0.100723 0.224614 -0.329864 -0.092238 0.012762 -0.312910 0.162004 0.216595 0.024512 0.322577 -0.076038 0.170795 -0.025898 0.045925 -0.103164 0.087063 -0.170872 0.014978 -0.105289 -0.187109 0.178806 -0.006409 -0.029410 0.245096 0.001387 0.215883 -0.038230 0.018319 -0.149604 0.334971 -0.093434 0.369393 -0.039083 -0.117549 -0.528259 0.043117 -0.067965 0.171368 0.182068 -0.092920 -0.216455 0.025967 -0.129232 0.008743 -0.094658 0.170999 0.107886 0.223614 -0.159508 -0.081839 0.120561 -0.148757 -0.045990 0.213116
54 -0.025708 0.013404 -0.012893 0.118217 -0.001438 -0.187957 0.284462 0.089653 -0.261318 0.183965 -0.427124 0.073741 -0.089977 -0.354795 0.028469 -0.174377 0.055415 0.189897 -0.103912 0.249755 -0.254757 0.158331 -0.440773 0.072954 0.326431 -0.129901 0.019005 0.218987 -0.385595 -0.225697 0.163796 0.239191 -0.112458 0.446271 -0.012447 0.233112 -0.144538 0.048488 0.544567 -0.145383 -0.062645 0.244554 -0.095289 -0.137868 -0.396399 0.102890 -0.056681 0.206827 0.334694 -0.288681 0.046286 0.132013 -0.032089 -0.027800 0.056881 0.166720 0.131063 0.164553 -0.110480 -0.145609 -0.353971 -0.339954 0.189687 -0.104048
287 -0.259728 -0.023779 -0.021780 0.175175 0.092257 -0.312834 0.294546 0.248598 -0.147808 0.155143 -0.214474 0.102665 0.046123 -0.449244 -0.088448 -0.133841 0.198439 0.331241 0.043075 0.224707 -0.106099 0.180233 -0.141809 0.146189 0.085982 0.076719 0.018550 0.319267 -0.282493 -0.163067 -0.021503 0.037073 -0.014626 0.401973 0.021429 0.133097 -0.154319 0.065055 0.364819 -0.235206 -0.005428 0.346603 -0.153796 -0.273989 -0.569606 0.206891 0.053091 0.019276 0.366143 -0.295664 0.005098 0.074802 0.074330 -0.117381 0.113384 0.147307 0.059790 -0.012206 -0.028767 -0.221935 -0.226538 -0.336580 0.174710 -0.235493
156 -0.134119 0.005928 0.152521 0.085740 -0.064876 0.247154 -0.071379 0.017250 -0.331828 0.001313 -0.027135 0.033694 -0.207764 0.063871 0.106984 -0.276467 0.173530 0.161713 0.092817 0.307272 0.104859 0.123146 -0.051102 -0.030212 -0.079689 0.193621 -0.091357 -0.029854 -0.178253 -0.260356 0.308541 -0.037632 -0.003998 0.244618 0.058130 0.122608 -0.063721 0.091901 -0.059964 0.212789 -0.068670 0.421683 -0.067507 -0.285529 -0.361477 0.020478 -0.029212 0.083181 0.314788 -0.040538 -0.213499 0.076370 -0.023501 0.089326 -0.093550 0.192042 0.073598 0.335779 -0.051438 -0.116668 0.156848 -0.146074 -0.087957 0.228005
472 -0.223447 -0.043353 0.129955 0.265950 -0.009328 0.264273 -0.073687 0.115410 -0.327008 -0.102151 -0.006503 0.156309 -0.203179 0.077625 0.116863 -0.465657 0.269755 0.173450 0.102985 0.148009 0.106298 0.148295 0.078917 -0.008009 0.083405 0.146014 -0.050213 -0.007334 -0.008850 -0.241394 0.264158 0.030241 0.047683 0.228344 0.015473 0.208059 -0.050721 0.014359 0.015368 0.225615 -0.206486 0.360116 -0.019165 -0.269968 -0.232543 0.071227 -0.148245 0.254268 0.296695 -0.114481 -0.230808 0.012285 -0.132186 0.019775 -0.040681 0.276053 0.138760 0.145956 -0.081276 0.115077 0.211373 -0.276655 -0.070298 0.090289
88 -0.213104 0.010508 0.132839 0.140482 0.015880 0.245616 -0.171783 0.069235 -0.207776 -0.093767 -0.065052 0.051134 -0.190298 -0.013377 0.072066 -0.222688 0.211576 0.144948 -0.007828 0.327620 0.004733 0.173743 0.012675 0.019114 0.057204 0.152412 -0.119587 -0.001496 -0.107147 -0.371406 0.230015 -0.007308 0.035892 0.307126 0.037455 0.205839 -0.101406 0.110179 -0.085369 0.255393 -0.092331 0.344585 0.069133 -0.171712 -0.395833 0.060115 0.001694 0.175314 0.204169 -0.010200 -0.268184 -0.092674 -0.038847 0.008946 -0.062310 0.162662 0.100401 0.299572 -0.169368 0.033379 0.046035 -0.099680 -0.056993 0.091674
153 -0.215255 -0.069887 0.039713 0.089357 0.006199 0.356997 -0.192266 -0.130092 -0.249609 0.019546 0.040194 0.131325 -0.283474 -0.158466 0.042388 -0.322211 0.246553 0.243055 0.036139 0.339126 0.029743 0.218730 0.077693 0.019922 -0.084790 0.066141 -0.096006 -0.033579 -0.082278 -0.177185 0.215669 -0.102050 -0.034986 0.141701 -0.050865 0.263033 -0.004103 -0.022178 -0.092353 0.286218 -0.105181 0.408027 -0.028780 -0.232582 -0.305751 0.129516 -0.045351 0.098797 0.309203 -0.189655 -0.261097 0.125627 0.001091 0.050634 0.016855 0.171616 0.116099 0.228985 -0.089374 -0.074994 -0.056019 -0.142814 -0.050593 0.172853
241 -0.035310 -0.166209 0.024664 0.158884 0.128398 0.008946 0.085844 -0.007631 -0.111796 0.121309 -0.078026 -0.087756 -0.062551 -0.276233 0.160467 -0.165934 0.104268 0.274759 0.017912 0.266799 -0.277567 0.131199 -0.257917 0.015783 0.130786 -0.132004 -0.045392 0.067437 -0.216019 -0.238451 0.132337 -0.051394 -0.014219 0.310577 0.197371 0.270779 -0.083738 0.155863 0.068120 -0.040067 -0.086390 0.107313 -0.051146 -0.199938 -0.201209 0.088313 -0.083561 0.238100 0.345641 -0.217930 -0.137858 0.148718 0.109906 -0.031467 -0.113058 0.284381 0.129490 0.097009 -0.179044 -0.064845 -0.000080 -0.273928 0.077496 -0.178104
237 -0.208477 0.002430 0.008913 -0.035043 0.100240 0.302281 -0.005574 0.040733 -0.256795 -0.091701 -0.009714 0.014314 -0.208788 0.083884 -0.036527 -0.361840 0.302993 0.267566 0.012096 0.294145 0.081277 0.058150 -0.080422 -0.094363 -0.136444 0.171872 -0.019142 -0.070161 -0.027352 -0.203145 0.281331 -0.006370 0.030555 0.281172 -0.017833 0.273055 -0.110056 0.191292 -0.043465 0.236002 -0.194928 0.446779 -0.005101 -0.307947 -0.334382 0.018930 -0.056727 0.309314 0.227107 0.005208 -0.261413 -0.044417 -0.101157 0.097888 0.198738 0.249024 0.151290 0.215522 -0.202590 0.074459 0.113147 -0.194139 -0.122880 0.222740
48 -0.121550 0.061413 -0.012479 0.186628 0.051559 0.018883 0.037130 0.145530 -0.190963 -0.055858 -0.001267 -0.041253 -0.139863 -0.038159 0.131208 -0.236184 0.083846 0.249069 0.066522 0.227804 -0.087320 0.128160 -0.119308 0.119253 0.061852 0.078826 -0.159137 0.120047 -0.039993 -0.128222 0.326745 -0.096884 0.130009 0.241574 0.099694 0.322088 -0.151085 0.134334 -0.006756 0.093581 -0.084122 0.251729 -0.060228 -0.189824 -0.295061 0.148672 0.190974 -0.019233 0.192791 -0.118129 -0.152387 -0.027163 -0.066889 0.067943 0.136769 0.200468 0.219875 0.297600 0.052912 0.044244 0.093950 -0.262292 0.162180 0.025999
114 -0.192430 -0.115100 -0.228994 0.182841 0.041295 -0.184172 0.354463 0.205153 -0.229245 0.092561 -0.321765 0.009396 -0.088674 -0.415473 -0.108009 -0.006234 0.030985 0.290275 0.082466 0.126228 -0.133031 0.115315 -0.370378 0.041854 0.110621 0.073614 0.082057 0.282930 -0.423817 -0.204161 0.079434 0.069240 -0.045115 0.345156 0.060639 0.165588 -0.168154 0.062265 0.426587 -0.179981 -0.069723 0.350942 -0.183632 -0.306488 -0.549719 0.210157 0.045831 0.106519 0.430848 -0.161295 -0.026537 0.043143 0.110871 -0.140882 0.070902 0.007148 0.293894 0.065713 0.078126 -0.207285 -0.068969 -0.283837 0.229881 -0.321948
6 -0.212355 -0.072406 0.133932 0.130662 -0.121663 0.231906 -0.201592 -0.050437 -0.288192 -0.106946 -0.004304 0.119410 -0.278442 -0.071784 0.151330 -0.341667 0.268052 0.289255 0.061310 0.331567 0.116076 0.182232 0.043932 0.091698 0.091495 0.070730 0.035902 -0.098953 0.005917 -0.183259 0.225793 0.029451 -0.028228 0.312611 0.006110 0.282912 -0.046364 0.043807 -0.121780 0.125527 -0.185831 0.327668 -0.091520 -0.125549 -0.473066 0.038583 0.026703 0.159751 0.259720 -0.049115 -0.194440 0.024490 -0.055434 0.041734 -0.025712 0.141670 0.058317 0.231038 -0.090890 0.050933 0.077112 -0.151232 -0.110939 0.147307
389 -0.287944 -0.053794 0.012580 0.252960 0.040481 0.077338 -0.096126 0.014393 -0.184397 -0.105925 0.034157 -0.059570 0.071988 -0.144804 0.106731 -0.385011 0.169288 0.048777 0.046312 0.182265 -0.115564 0.181526 -0.172473 -0.059934 0.092994 0.052983 -0.101140 0.210321 -0.085641 -0.170904 0.188899 -0.032580 -0.085552 0.342010 0.117271 0.190072 0.046354 0.055386 0.030230 0.155056 -0.195879 0.253482 -0.045257 -0.223077 -0.147816 0.172717 0.036479 0.092691 0.244148 -0.121600 -0.328315 -0.003502 0.086415 -0.036086 -0.092736 0.118537 0.204196 0.285932 -0.114770 -0.132184 0.053080 -0.064972 0.021107 0.062542
72 -0.137574 -0.132391 -0.157880 0.152195 0.094631 -0.107808 0.375561 0.153911 -0.310809 0.111875 -0.144604 0.096905 -0.084620 -0.447873 -0.078459 -0.018114 0.146894 0.153697 0.051049 0.139631 -0.174754 0.241625 -0.333339 0.168629 0.137329 -0.032412 0.201796 0.310376 -0.323361 -0.245148 0.152715 0.044280 -0.074426 0.476043 -0.006148 0.077513 -0.213630 0.027122 0.344792 -0.290959 -0.118070 0.460494 -0.064117 -0.236620 -0.411881 0.236055 0.098667 0.080509 0.294377 -0.278754 -0.075550 0.071481 0.176892 -0.160172 0.234549 0.142575 0.205173 0.033103 -0.046841 -0.248570 -0.160595 -0.218545 0.179952 -0.214110
45 -0.063101 -0.046721 -0.054010 0.213163 -0.017414 0.127504 0.038571 0.030824 -0.344222 -0.070734 -0.037288 0.030329 -0.078461 -0.177770 -0.064925 -0.252477 0.024228 0.276333 0.105169 0.347649 0.027642 0.138864 0.043385 0.206589 0.067906 0.008944 -0.152705 0.042046 -0.284283 -0.133088 0.196998 0.116129 -0.106975 0.261156 0.041971 0.111565 -0.066635 0.128925 -0.036977 0.130714 -0.133572 0.184495 -0.103105 -0.186279 -0.317403 0.017211 0.232025 -0.063978 0.283178 -0.136456 -0.175079 -0.091541 0.078867 0.078354 0.147546 0.170220 0.195735 0.130965 -0.080738 0.154866 0.134952 -0.190155 0.106366 0.141661
44 -0.023987 0.006655 0.089566 0.234029 0.021324 0.109040 0.150250 0.065499 -0.109661 -0.072721 -0.045962 0.073143 0.006513 -0.087691 0.001631 -0.227500 0.183097 0.227328 0.094257 0.222912 -0.080128 0.186891 -0.014655 0.002087 0.258645 0.006511 -0.222914 0.159438 -0.096088 -0.154172 0.210591 0.013629 -0.084790 0.184152 0.094239 0.245874 -0.071040 0.123401 0.038666 0.099067 -0.127251 0.198778 -0.082734 -0.168361 -0.376737 0.046962 0.168788 -0.071586 0.341319 -0.138606 -0.218926 -0.036931 -0.099961 0.065368 0.125885 0.132718 0.293423 0.318292 -0.047920 -0.039159 0.163133 -0.152849 0.032739 0.147945
77 -0.186964 -0.134024 -0.248380 0.257357 0.059963 -0.206438 0.303663 0.227378 -0.142046 0.119359 -0.200443 0.201185 0.014922 -0.363331 -0.076281 -0.227394 0.065950 0.247790 -0.016411 0.211800 -0.023651 0.299704 -0.337960 0.187825 0.162478 -0.118897 -0.037918 0.271042 -0.334453 -0.091674 0.208901 0.218686 -0.210759 0.395646 0.063292 0.023186 -0.132358 0.137205 0.480346 -0.323029 -0.108527 0.337027 -0.059891 -0.287579 -0.507450 0.193287 0.036430 0.189904 0.352193 -0.177772 0.039849 -0.089081 0.121892 -0.163935 0.097681 0.044309 0.103335 0.027202 0.004282 -0.183455 -0.211216 -0.354438 0.043205 -0.132246
46 -0.027504 -0.035406 0.004589 0.169076 0.012037 0.090397 0.124233 0.020662 -0.200899 -0.104205 -0.140783 0.034994 -0.147233 -0.015124 0.022727 -0.178562 0.223818 0.237922 -0.075234 0.240685 -0.025253 0.257072 -0.051770 0.014965 0.179388 0.159775 -0.235298 0.104011 -0.193356 -0.172643 0.237164 0.026526 0.049879 0.210279 0.048070 0.139741 -0.117834 0.131628 0.013272 0.117111 -0.049399 0.249369 -0.098214 -0.203868 -0.423917 0.083144 0.175822 -0.046568 0.033239 -0.078128 -0.322270 0.025445 -0.000922 0.115454 0.091072 0.240829 0.105031 0.256920 -0.047636 0.096851 0.124249 -0.224467 0.172333 -0.031122
91 -0.194429 0.022142 0.153819 0.263610 -0.064657 0.269871 -0.110031 -0.029040 -0.161892 -0.049075 -0.083038 0.011697 -0.374279 -0.031869 -0.004080 -0.237134 0.225101 0.162483 0.049265 0.352750 0.092749 0.170415 0.091067 0.044559 -0.094832 0.055931 -0.110245 0.140181 -0.117678 -0.242553 0.207275 -0.029085 0.060926 0.280860 -0.005974 0.237230 -0.117241 -0.002015 -0.068676 0.273537 -0.209868 0.315703 -0.085499 -0.223590 -0.374506 0.020686 -0.025881 0.191554 0.165329 -0.188625 -0.218608 0.062581 -0.035769 0.090380 0.059284 0.245997 0.157583 0.318625 -0.076951 0.065159 0.064465 0.025461 -0.053944 0.128083
350 -0.140137 -0.087091 -0.032655 0.159791 0.179647 -0.093731 0.068635 0.073327 -0.326736 -0.028063 -0.144740 0.038166 -0.053989 -0.150514 0.112982 -0.298114 0.099928 0.323395 0.066012 0.160598 0.010138 0.239479 -0.143134 0.210097 0.070087 0.061912 -0.119210 0.029220 -0.122759 -0.197401 0.180700 0.021921 -0.069356 0.341941 0.170450 -0.127349 -0.066057 0.192805 0.089191 0.044963 -0.049725 0.172134 -0.052423 -0.199437 -0.307014 0.002398 0.230994 0.172003 0.218988 -0.167415 -0.176731 0.000047 -0.053202 0.151185 0.020234 0.268575 0.137815 0.201323 -0.036952 -0.043850 -0.037783 -0.066394 0.028357 0.090287
89 -0.323604 -0.006334 0.208730 0.206772 -0.041972 0.181007 -0.111774 -0.062043 -0.154134 -0.165631 -0.067090 0.055154 -0.119248 -0.006818 0.051595 -0.185261 0.057214 0.161369 0.140019 0.331496 0.060798 0.149527 -0.007826 -0.031176 0.047874 0.101675 -0.107656 -0.109434 -0.082776 -0.245405 0.269604 0.003128 -0.123442 0.340479 0.010918 0.300755 -0.078311 0.048909 -0.017256 0.226293 -0.182794 0.310887 0.032137 -0.297167 -0.423653 0.152533 -0.094629 0.215977 0.157035 -0.016504 -0.194430 0.046560 -0.054581 0.124820 0.069474 0.220549 0.127756 0.320998 -0.025065 -0.045416 0.092565 -0.053762 -0.130042 0.063445
230 -0.229203 -0.099191 0.074817 0.065030 0.024602 0.236019 -0.064696 0.018435 -0.223798 -0.185107 -0.016156 0.015717 -0.242786 0.070251 0.075794 -0.385765 0.151298 0.183782 0.009563 0.229605 0.009085 0.092706 0.062107 0.079611 0.041118 0.126608 0.018584 0.062901 -0.072747 -0.156592 0.235415 -0.026340 0.014797 0.142676 -0.030116 0.223799 -0.147809 0.074032 -0.129792 0.344322 -0.279546 0.248961 0.130266 -0.216601 -0.480313 0.115164 -0.009820 0.111229 0.501324 -0.083982 -0.213948 -0.016177 -0.039692 0.019581 0.042875 0.233745 0.164135 0.332128 -0.178300 -0.044612 0.127646 -0.157846 -0.128766 0.183138
49 -0.086569 -0.051589 0.140178 0.121135 0.068516 0.050650 0.025830 0.014729 -0.226921 0.012723 -0.032864 -0.005965 -0.055823 -0.062912 -0.115001 -0.234281 0.213827 0.211355 0.039614 0.165929 -0.089331 0.202541 -0.057857 0.155549 0.094327 0.185915 -0.227142 0.147551 -0.127037 -0.072843 0.117985 -0.048965 -0.041365 0.244704 0.071460 0.142789 -0.035889 0.154312 0.050808 0.211352 -0.134812 0.242547 -0.046478 -0.225409 -0.376871 0.082334 0.090280 0.069742 0.276525 -0.183958 -0.286498 -0.025875 -0.006263 0.085698 0.107605 0.155479 0.285413 0.238774 -0.124426 0.087162 0.177532 -0.063480 0.008352 0.003316
71 -0.080660 -0.044940 -0.115081 0.246998 0.024593 -0.140440 0.354334 0.223391 -0.359709 0.134251 -0.225288 -0.085002 -0.039867 -0.400579 -0.090277 -0.167368 0.004951 0.270610 -0.117718 0.272984 -0.042942 0.264379 -0.311461 0.166376 0.078975 0.013334 -0.089379 0.401907 -0.373128 -0.190334 0.042826 0.155924 -0.132756 0.344786 -0.109574 0.105478 -0.187522 -0.047026 0.301250 -0.236713 -0.043824 0.322107 -0.126571 -0.136966 -0.511283 0.160354 0.063015 0.128531 0.437514 -0.328050 -0.085241 0.013672 0.070472 -0.205771 0.149801 0.050900 0.189703 -0.026316 -0.027596 -0.389978 -0.238154 -0.305714 0.086710 -0.242814
479 -0.385269 -0.044572 0.292676 0.105644 -0.080272 0.122771 -0.202944 0.059154 -0.221444 -0.000450 -0.056160 -0.035433 -0.206368 -0.149207 0.071062 -0.244068 0.165279 0.162047 0.175152 0.298880 0.050369 0.197328 0.056904 0.000404 0.006669 0.179468 -0.082302 0.073753 -0.007733 -0.387240 0.231201 -0.011924 0.066273 0.302715 -0.026757 0.334612 -0.061721 0.167160 -0.076383 0.269002 -0.172026 0.270418 0.029232 -0.099172 -0.323869 0.043165 -0.107761 0.033633 0.311973 -0.114408 -0.163188 -0.035113 -0.006474 0.124176 0.037437 0.198846 0.149512 0.264058 -0.087976 -0.104244 0.140590 -0.015196 0.032166 0.070684
457 -0.064151 -0.222129 -0.105185 0.297951 -0.021217 -0.332648 0.184726 0.299968 -0.225109 0.206241 -0.304861 0.144615 -0.142086 -0.448918 -0.070831 -0.254948 0.162510 0.239612 -0.012577 0.193087 -0.232846 0.143584 -0.485271 0.108114 0.187590 -0.074656 0.047701 0.230795 -0.361813 -0.123969 0.075709 0.183607 -0.029036 0.503429 -0.067435 0.120299 0.060105 0.052792 0.439931 -0.110632 -0.192689 0.338218 -0.098383 -0.221128 -0.441935 0.052009 -0.055226 0.136185 0.339229 -0.149172 0.098564 0.081597 0.064839 0.026002 0.034397 0.084059 0.089473 0.030990 -0.171134 -0.238989 -0.318176 -0.393808 0.189171 -0.211028
90 -0.245774 -0.098920 0.252362 0.177114 -0.024200 0.083977 -0.100262 -0.031006 -0.257525 -0.033722 0.041642 0.134240 -0.124198 -0.098912 0.206865 -0.229290 -0.049698 0.114723 0.061216 0.340013 0.053067 0.297344 0.071926 -0.098315 0.042032 0.011808 -0.091516 -0.066598 -0.196553 -0.097713 0.305852 0.007092 -0.009806 0.331179 -0.115949 0.329594 -0.045994 0.152688 -0.132768 0.250975 -0.267173 0.364047 -0.066438 -0.262293 -0.319687 0.049440 -0.019878 0.111987 0.227103 -0.053138 -0.192198 0.083634 -0.123765 0.177670 -0.003630 0.271405 0.183933 0.275102 -0.084207 -0.005776 0.060081 -0.016410 0.014774 0.113328
